<?xml version="1.0"?>
<opencv_storage>
<opencv_ml_svm>
  <format>3</format>
  <svmType>C_SVC</svmType>
  <kernel>
    <type>RBF</type>
    <gamma>0.50625000000000009</gamma></kernel>
  <C>312.5</C>
  <term_criteria><epsilon>1.1920928955078125e-07</epsilon>
    <iterations>1000</iterations></term_criteria>
  <var_count>50</var_count>
  <class_count>2</class_count>
  <class_labels type_id="opencv-matrix">
    <rows>2</rows>
    <cols>1</cols>
    <dt>i</dt>
    <data>
      0 1</data></class_labels>
  <sv_total>253</sv_total>
  <support_vectors>
    <_>
      0.0288135596 0.0152542368 0.00677966094 0.011864407 0.0305084735
      0.0389830507 0.0101694912 0.00677966094 0.0898305103 0.0152542368
      0.023728814 0.0203389823 0.0152542368 0.0220338982 0.0220338982
      0.011864407 0.0101694912 0.0152542368 0.0186440684 0.0186440684
      0.0203389823 0.0271186437 0.0338983051 0.0254237279 0.0101694912
      0.0186440684 0.0186440684 0.023728814 0.0169491526 0.0169491526
      0.0135593219 0.0186440684 0.0203389823 0.0186440684 0.0254237279
      0.0169491526 0.0152542368 0.0203389823 0.0101694912 0.011864407
      0.0101694912 0.011864407 0.0762711838 0.00847457629 0.0169491526
      0.0169491526 0.011864407 0.0186440684 0.00847457629 0.00508474559</_>
    <_>
      0.00323624606 0.0129449842 0.0258899685 0.0420711972 0.0194174759
      0.0323624611 0.0258899685 0.0129449842 0.0323624611 0.0614886768
      0.0291262139 0.00323624606 0.0129449842 0.0258899685 0.0226537231
      0.0194174759 0.0194174759 0.00970873795 0.0194174759 0.0355987065
      0.0226537231 0.0226537231 0.0194174759 0.0258899685 0.0129449842
      0.00647249212 0.0161812305 0.00970873795 0.0194174759 0.0258899685
      0.0161812305 0.0485436916 0.0129449842 0.0129449842 0.00970873795
      0.0129449842 0.0226537231 0.00647249212 0.0323624611 0.0129449842
      0.00647249212 0.0129449842 0.0258899685 0.00323624606 0.0161812305
      0.00323624606 0.0291262139 0.00970873795 0.0420711972 0.0161812305</_>
    <_>
      0.0202020202 0.0134680131 0.0101010101 0.0235690232 0.0505050495
      0.0134680131 0.0101010101 0.0303030293 0.0572390556 0.0336700343
      0.0134680131 0.00336700329 0.0336700343 0.0168350171 0.0303030293
      0.0303030293 0.0303030293 0.0437710434 0.0538720526 0.0134680131
      0.0134680131 0.0134680131 0.0269360263 0.0101010101 0.0370370373
      0.0168350171 0.0303030293 0.0269360263 0.00673400657 0.0235690232
      0.00673400657 0.0269360263 0.00673400657 0.0101010101 0.0168350171
      0.00673400657 0.0101010101 0. 0.0370370373 0.00673400657
      0.0303030293 0.0202020202 0.0134680131 0.0134680131 0.00673400657
      0. 0. 0.0134680131 0.0134680131 0.0235690232</_>
    <_>
      0.0362318829 0.0120772943 0.00724637695 0.0193236712 0.0241545886
      0.0434782617 0.0024154589 0.0169082116 0.0434782617 0.0144927539
      0.0120772943 0.0217391308 0.0386473425 0.0169082116 0.0362318829
      0.0193236712 0.0314009674 0.0386473425 0.0144927539 0.0265700482
      0.0144927539 0.0314009674 0.0193236712 0.0265700482 0.0144927539
      0.0169082116 0.0193236712 0.0265700482 0.0217391308 0.0265700482
      0.00966183562 0.0193236712 0.00724637695 0.0434782617 0.0217391308
      0.0144927539 0.0144927539 0.0120772943 0.0193236712 0.00724637695
      0.00966183562 0.0169082116 0.0265700482 0.00724637695 0.0169082116
      0.0144927539 0.0169082116 0.00966183562 0.0120772943 0.00724637695</_>
    <_>
      0.0501138978 0.0113895219 0.00911161769 0.0250569489 0.0205011405
      0.0227790438 0.0159453303 0.013667427 0.0227790438 0.0318906605
      0.013667427 0.00911161769 0.0341685675 0.0113895219 0.0205011405
      0.0205011405 0.0296127573 0.0227790438 0.0250569489 0.0227790438
      0.00911161769 0.0318906605 0.0182232354 0.0341685675 0.0250569489
      0.0113895219 0.013667427 0.013667427 0.0205011405 0.0250569489
      0.0159453303 0.027334854 0.013667427 0.041002281 0.0182232354
      0.027334854 0.0296127573 0.00911161769 0.00911161769 0.0159453303
      0.00911161769 0.0318906605 0.0205011405 0.0113895219 0.0159453303
      0.0182232354 0.0068337135 0.00911161769 0.0068337135 0.027334854</_>
    <_>
      0.027139876 0.0167014617 0.00417536544 0.0250521936 0.00417536544
      0.0334029235 0.0167014617 0.0125260968 0.0208768267 0.00626304839
      0.0146137793 0.00626304839 0.0229645092 0.00417536544 0.0292275585
      0.0229645092 0.0521920696 0.039665971 0.0605427995 0.0125260968
      0.00835073087 0.031315241 0.0146137793 0.0125260968 0.0167014617
      0.0187891442 0.031315241 0.0417536534 0.027139876 0.027139876
      0.00835073087 0.027139876 0.0146137793 0.027139876 0.0125260968
      0.0167014617 0.0229645092 0.00835073087 0.0146137793 0.0292275585
      0.0208768267 0.0334029235 0.0125260968 0.0146137793 0.0146137793
      0.0187891442 0.0125260968 0.00626304839 0.00835073087 0.0146137793</_>
    <_>
      0.0423728824 0.00847457629 0.0141242938 0.0197740123 0.0225988701
      0.0310734473 0.0141242938 0.0141242938 0.048022598 0.0338983051
      0.0282485876 0.0225988701 0.0282485876 0.0423728824 0.0197740123
      0.00847457629 0.0225988701 0.00564971752 0.0141242938
      0.00847457629 0.0169491526 0.00847457629 0.036723163 0.011299435
      0.0310734473 0.00282485876 0.011299435 0.011299435 0.00847457629
      0.0169491526 0.0197740123 0.0141242938 0.00282485876 0.0169491526
      0.0141242938 0.0141242938 0.0621468946 0.011299435 0.0225988701
      0.0310734473 0.0225988701 0.0197740123 0.0508474559 0.0254237279
      0.0254237279 0.00282485876 0.011299435 0.00564971752 0.0141242938
      0.00847457629</_>
    <_>
      0.035168197 0.0168195721 0.0122324163 0.0259938855 0.0290519893
      0.0336391442 0.0198776759 0.0107033644 0.0749235526 0.0152905202
      0.0198776759 0.0198776759 0.0229357798 0.0137614682 0.0229357798
      0.0137614682 0.0137614682 0.0290519893 0.0137614682 0.0321100913
      0.0183486249 0.00917431246 0.0321100913 0.0290519893 0.00917431246
      0.0107033644 0.0259938855 0.0305810403 0.0152905202 0.00917431246
      0.0152905202 0.0198776759 0.0122324163 0.0214067288 0.0198776759
      0.0152905202 0.0168195721 0.0122324163 0.0137614682 0.0183486249
      0.00764526008 0.0198776759 0.0366972499 0.00917431246 0.0168195721
      0.0198776759 0.0198776759 0.0122324163 0.0152905202 0.0122324163</_>
    <_>
      0.015625 0.015625 0. 0.03125 0.0390625 0.03125 0.046875 0.0390625
      0.046875 0.046875 0.03125 0.0078125 0.0234375 0.03125 0.0234375 0.
      0.015625 0.0234375 0.015625 0. 0.0234375 0.0390625 0.015625 0.
      0.03125 0.015625 0.015625 0.0078125 0.015625 0.015625 0.0234375
      0.015625 0. 0.015625 0.015625 0.0078125 0.0078125 0.03125 0.
      0.03125 0. 0.0078125 0.0390625 0.0390625 0. 0.015625 0.0390625
      0.0078125 0.0234375 0.015625</_>
    <_>
      0.0500000007 0.00384615385 0.0115384618 0.0153846154 0.0115384618
      0.0192307699 0.0442307703 0.0134615386 0.0384615399 0.00576923089
      0.00384615385 0.0326923095 0.00961538497 0.0269230772
      0.00576923089 0.00576923089 0.0192307699 0.0730769262 0.0269230772
      0.0192307699 0.00961538497 0.0365384631 0.0192307699 0.0134615386
      0.0115384618 0.0307692308 0.0346153863 0.0211538468 0.0134615386
      0.00961538497 0.0384615399 0.00961538497 0.0153846154 0.0442307703
      0.0153846154 0.0326923095 0.0115384618 0.0211538468 0.0173076931
      0.0153846154 0.0134615386 0.0173076931 0.0192307699 0.0153846154
      0.00576923089 0.0153846154 0.0230769236 0.0153846154 0.00961538497
      0.0076923077</_>
    <_>
      0.00722021656 0.0288808662 0.0252707582 0.0144404331 0.0397111923
      0. 0.0324909762 0.0108303251 0.0613718405 0.0108303251
      0.0216606501 0.0397111923 0.0108303251 0.0216606501 0.00722021656
      0.0216606501 0.0252707582 0.0252707582 0.0108303251 0.0108303251
      0.0108303251 0.0108303251 0.0397111923 0.0252707582 0.0252707582
      0.0288808662 0.00361010828 0.0144404331 0.0144404331 0.00361010828
      0.0397111923 0.0108303251 0.0180505421 0.0288808662 0.00722021656
      0.0324909762 0.0180505421 0.0108303251 0.00722021656 0.00722021656
      0.0180505421 0.0252707582 0.0144404331 0.0288808662 0.00361010828
      0.0288808662 0.0324909762 0.0288808662 0.0216606501 0.0144404331</_>
    <_>
      0.00655021844 0.0283842795 0.00873362459 0.0196506549 0.0174672492
      0.0480349362 0.00873362459 0.0174672492 0.0567685589 0.0218340605
      0.00655021844 0.0109170303 0.0262008738 0.0131004369 0.0327510908
      0.0196506549 0.0349344984 0.0349344984 0.0240174681 0.0174672492
      0.00873362459 0.0218340605 0.00655021844 0.0240174681 0.0131004369
      0.0283842795 0.0240174681 0.0196506549 0.0196506549 0.0196506549
      0.00655021844 0.0414847173 0.0131004369 0.0349344984 0.00873362459
      0.030567687 0.0218340605 0.00873362459 0.0196506549 0.0131004369
      0.0174672492 0.0262008738 0.0414847173 0.0043668123 0.0152838435
      0.0152838435 0.0131004369 0.0043668123 0.0131004369 0.0109170303</_>
    <_>
      0.0148148146 0.05185185 0.00740740728 0. 0.0592592582
      0.00740740728 0.0222222209 0.0148148146 0.0370370373 0.05185185
      0.0148148146 0.00740740728 0. 0.0148148146 0.0444444418
      0.0222222209 0.0148148146 0.0370370373 0.0222222209 0.
      0.00740740728 0.0148148146 0.0148148146 0.0296296291 0.0296296291
      0.0148148146 0.00740740728 0.00740740728 0.111111112 0.00740740728
      0.0222222209 0.00740740728 0.0148148146 0.0296296291 0.
      0.0148148146 0. 0.00740740728 0. 0.0296296291 0.0296296291
      0.0148148146 0.00740740728 0.00740740728 0.00740740728
      0.0148148146 0.0222222209 0.00740740728 0.05185185 0.0222222209</_>
    <_>
      0.00558659201 0.011173184 0.0167597756 0. 0.0335195512
      0.0167597756 0.011173184 0.0167597756 0.0335195512 0.0391061455
      0.011173184 0.0391061455 0.011173184 0.011173184 0.0223463681 0.
      0.0167597756 0.0279329605 0.011173184 0.0279329605 0.00558659201
      0.0223463681 0.0167597756 0.0167597756 0.0223463681 0.011173184
      0.0335195512 0.0446927361 0.00558659201 0.0223463681 0.0223463681
      0.0167597756 0.0670391023 0.0446927361 0.0167597756 0.0279329605
      0.011173184 0.0167597756 0. 0.0391061455 0. 0.00558659201
      0.011173184 0.0279329605 0.0167597756 0.011173184 0.0279329605
      0.0446927361 0.0167597756 0.011173184</_>
    <_>
      0.029530203 0.0174496658 0.00939597376 0.0174496658 0.0281879213
      0.0429530218 0.0201342292 0.0107382555 0.037583895 0.0201342292
      0.00402684603 0.00939597376 0.0174496658 0.0134228189 0.025503356
      0.0147651015 0.037583895 0.0308724847 0.037583895 0.0134228189
      0.00671140943 0.0161073841 0.0214765109 0.0201342292 0.0147651015
      0.0214765109 0.0161073841 0.0201342292 0.0187919475 0.0174496658
      0.0161073841 0.0402684584 0.0120805372 0.0241610743 0.0214765109
      0.0174496658 0.0174496658 0.00671140943 0.029530203 0.0590604059
      0.00939597376 0.0201342292 0.0214765109 0.0107382555 0.0120805372
      0.0134228189 0.025503356 0.00671140943 0.0134228189 0.0120805372</_>
    <_>
      0.0310262535 0.0190930795 0.00715990458 0.0214797147 0.0238663498
      0.0214797147 0.00954653975 0.0334128886 0.05250597 0.026252985
      0.0143198092 0.0143198092 0.026252985 0.0143198092 0.0214797147
      0.0310262535 0.00954653975 0.0310262535 0.0167064443 0.00954653975
      0.00954653975 0.0286396183 0.0238663498 0.0167064443 0.0119331749
      0.026252985 0.0214797147 0.0310262535 0.0214797147 0.0119331749
      0.026252985 0.0190930795 0.05250597 0.0238663498 0.0119331749
      0.0405727923 0.0119331749 0.0190930795 0.00954653975 0.0214797147
      0.00715990458 0.0238663498 0.0167064443 0.00715990458 0.0143198092
      0.00477326987 0.0119331749 0.00715990458 0.0190930795 0.0143198092</_>
    <_>
      0.011764707 0.0274509825 0.0156862754 0.011764707 0.0392156877 0.
      0.00784313772 0.00392156886 0.0705882385 0.113725498 0.0313725509
      0.00392156886 0.0196078438 0.0235294141 0.0156862754 0.0235294141
      0.0392156877 0.00784313772 0.0196078438 0.0196078438 0.00784313772
      0.0156862754 0.0156862754 0.0156862754 0.0392156877 0.00784313772
      0.011764707 0.0156862754 0.0274509825 0.00392156886 0.0235294141
      0.0235294141 0.0274509825 0.00392156886 0.00392156886 0.0274509825
      0.011764707 0.00784313772 0.00784313772 0.0470588282 0.00784313772
      0.00784313772 0.00392156886 0.0196078438 0. 0.0156862754
      0.011764707 0.0274509825 0.0313725509 0.0235294141</_>
    <_>
      0.0575539581 0.0161870513 0.0107913669 0.00899280608 0.0323741026
      0.0521582738 0.0143884895 0.00359712238 0.0521582738 0.0143884895
      0.0107913669 0.019784173 0.0179856122 0.0161870513 0.019784173
      0.0359712243 0.0143884895 0.0161870513 0.0179856122 0.0161870513
      0.00899280608 0.0143884895 0.0143884895 0.0179856122 0.0143884895
      0.0215827338 0.0179856122 0.0287769791 0.0287769791 0.0125899287
      0.0233812947 0.0287769791 0.0215827338 0.0305755399 0.0305755399
      0.0143884895 0.00359712238 0.0179856122 0.0341726616 0.0107913669
      0.0161870513 0.00539568346 0.0305755399 0.0143884895 0.0215827338
      0.0107913669 0.0107913669 0.0125899287 0.0323741026 0.00179856119</_>
    <_>
      0.0182555784 0.0182555784 0.00507099368 0.0202839747 0.015212981
      0.0111561865 0.00912778918 0.0263691675 0.00405679503 0.0334685594
      0.00507099368 0.00912778918 0.0243407711 0.00608519278
      0.0131845837 0.00608519278 0.059837725 0.0385395512 0.128803238
      0.0111561865 0.00304259639 0.0172413792 0.0202839747 0.0131845837
      0.00811359007 0.023326572 0.0172413792 0.0192697756 0.0344827585
      0.0436105467 0.00709939143 0.0912778899 0.0141987829 0.023326572
      0.0182555784 0.0243407711 0.0101419874 0.00304259639 0.00912778918
      0.0121703856 0.0253549684 0.0141987829 0.00608519278 0.00912778918
      0.0131845837 0.00912778918 0.0121703856 0.00811359007 0.0121703856
      0.0141987829</_>
    <_>
      0.0124223605 0.0124223605 0.00621118024 0.0186335407 0.024844721
      0.0124223605 0.0372670814 0.024844721 0.0310559012 0.0310559012
      0.0124223605 0.024844721 0.00621118024 0.0559006222 0.0310559012
      0.0124223605 0.0186335407 0.0124223605 0.0186335407 0.00621118024
      0.0124223605 0.024844721 0. 0.00621118024 0.024844721 0.0124223605
      0.0124223605 0.0124223605 0.0124223605 0.0496894419 0.0186335407
      0.0559006222 0.0310559012 0.0434782617 0.00621118024 0.0372670814
      0. 0.00621118024 0.0124223605 0. 0.0372670814 0.0186335407 0.
      0.024844721 0.0124223605 0.0186335407 0.0124223605 0.0310559012
      0.0310559012 0.024844721</_>
    <_>
      0.01459854 0.00973236002 0.01946472 0.0291970801 0.00973236002
      0.0510948896 0.0170316305 0.0170316305 0.034063261 0.0121654496
      0.00486618001 0.01946472 0.0121654496 0.01946472 0.00729927002
      0.0170316305 0.0291970801 0.053527981 0.0437956192 0.01459854
      0.00973236002 0.0316301696 0.0170316305 0.01459854 0.0267639905
      0.0121654496 0.0243308991 0.0291970801 0.00973236002 0.0121654496
      0.00973236002 0.0413625315 0.00973236002 0.0267639905 0.0170316305
      0.01946472 0.0121654496 0.0218978096 0.00729927002 0.01459854
      0.034063261 0.0316301696 0.0267639905 0.00973236002 0.0316301696
      0.00973236002 0.01459854 0.01946472 0.00243309001 0.0170316305</_>
    <_>
      0.0374449342 0.00220264308 0.0286343601 0.0176211447 0.0704845786
      0.0484581478 0.00881057233 0.0110132154 0.052863434 0.0198237877
      0.0220264308 0.0132158585 0.0220264308 0.0242290739 0.0176211447
      0.0132158585 0.00660792924 0.00440528616 0.00660792924
      0.0220264308 0.0242290739 0.0220264308 0.0374449342 0.0132158585
      0.0154185016 0.0154185016 0.0198237877 0.00881057233 0.00220264308
      0.00881057233 0.026431717 0.0198237877 0.0308370031 0.026431717
      0.0286343601 0.0242290739 0.0154185016 0.0286343601 0.0220264308
      0.0132158585 0.00881057233 0.0198237877 0.0198237877 0.0110132154
      0.00660792924 0.0110132154 0.0110132154 0.0198237877 0.0220264308
      0.0176211447</_>
    <_>
      0.0385964923 0.0245614033 0.003508772 0.0175438598 0.0210526325
      0.028070176 0.0175438598 0.003508772 0.0631578937 0. 0.0105263162
      0.0666666701 0. 0.0245614033 0.00701754401 0.0105263162
      0.003508772 0.108771935 0. 0.00701754401 0.0105263162 0.0315789469
      0.014035088 0.0105263162 0. 0.042105265 0.0385964923 0.042105265
      0.0210526325 0.00701754401 0.0315789469 0.0105263162 0.0210526325
      0.042105265 0.0105263162 0.014035088 0.00701754401 0.0315789469
      0.0105263162 0.014035088 0.0175438598 0.00701754401 0.014035088
      0.003508772 0.0245614033 0.0175438598 0.028070176 0.0175438598 0.
      0.003508772</_>
    <_>
      0.0133689847 0.0160427801 0.0240641721 0.0106951874 0.0240641721
      0.0133689847 0.0187165774 0.0133689847 0.0267379694 0.0481283441
      0.0187165774 0.0213903747 0.0267379694 0.0160427801 0.0160427801
      0.00802139007 0.0187165774 0.0160427801 0.0294117648 0.0267379694
      0.0106951874 0.0160427801 0.0160427801 0.0294117648 0.0374331549
      0.0240641721 0.0160427801 0.0133689847 0.0267379694 0.0267379694
      0.0294117648 0.0320855603 0.0133689847 0.0320855603 0.0213903747
      0.0267379694 0.00267379684 0.0187165774 0.0106951874 0.0187165774
      0.00802139007 0.0160427801 0.0160427801 0.0240641721 0.0240641721
      0.00802139007 0.0187165774 0.0160427801 0.0240641721 0.0160427801</_>
    <_>
      0.0186528508 0.0248704664 0.0145077724 0.025906736 0.00310880831
      0.0269430056 0.025906736 0.0072538862 0.0041450779 0.00829015579
      0.015544042 0.0134715028 0.00310880831 0.0124352332 0.0072538862
      0.0145077724 0.0176165812 0.0642487109 0.0145077724 0.025906736
      0.0124352332 0.0404145084 0.0341968909 0.0113989646 0.010362695
      0.046632126 0.0331606232 0.0290155448 0.0497409329 0.0176165812
      0.0279792752 0.015544042 0.0238341987 0.0362694301 0.0176165812
      0.0404145084 0.00621761661 0.0196891204 0.015544042 0.0196891204
      0.00518134749 0.0238341987 0.00518134749 0.0227979291
      0.00621761661 0.025906736 0.0248704664 0.0134715028 0.00310880831
      0.0134715028</_>
    <_>
      0.0150150154 0.0255255252 0.00900900923 0.0165165178 0.0360360369
      0.0195195191 0.0315315314 0.0285285302 0.0210210215 0.0135135138
      0.00900900923 0.00750750769 0.0315315314 0.0120120123 0.0120120123
      0.0240240246 0.0300300308 0.0240240246 0.0210210215 0.0120120123
      0.00600600615 0.0210210215 0.0285285302 0.0135135138 0.022522524
      0.0375375375 0.0270270277 0.0270270277 0.0375375375 0.022522524
      0.0120120123 0.0255255252 0.0210210215 0.0315315314 0.0135135138
      0.0255255252 0.0210210215 0.00900900923 0.0165165178 0.0165165178
      0.0270270277 0.0210210215 0.00900900923 0.0135135138 0.0165165178
      0.00750750769 0.0120120123 0.0150150154 0.0195195191 0.0240240246</_>
    <_>
      0.024390243 0.00975609757 0.0195121951 0.0219512191 0.0317073166
      0.0439024381 0.0170731712 0.0170731712 0.0609756112 0.0560975596
      0.0146341464 0.0170731712 0.00243902439 0.0219512191 0.00975609757
      0.0146341464 0.00243902439 0.0170731712 0.00487804879 0.0341463424
      0.00975609757 0.0121951215 0.0268292688 0.0195121951 0.0146341464
      0.0317073166 0.0121951215 0.0268292688 0.0170731712 0.00975609757
      0.0292682927 0.0170731712 0.0121951215 0.0365853645 0.0146341464
      0.0219512191 0.0292682927 0.0121951215 0.00731707318 0.0268292688
      0.0121951215 0.0146341464 0.0341463424 0.0146341464 0.0121951215
      0.0121951215 0.0170731712 0.0195121951 0.0268292688 0.00731707318</_>
    <_>
      0.0304878037 0.00609756075 0.0182926822 0.0182926822 0.0182926822
      0.024390243 0.00609756075 0.024390243 0.0304878037 0.0121951215
      0.00609756075 0.00609756075 0. 0.0121951215 0. 0.0182926822
      0.0426829234 0.0121951215 0.0304878037 0.0182926822 0.
      0.0182926822 0.00609756075 0.0182926822 0.0121951215 0.024390243
      0.0304878037 0.0304878037 0.00609756075 0.0121951215 0.0182926822
      0.0609756075 0.024390243 0.0426829234 0.0121951215 0.0609756075
      0.0182926822 0.0182926822 0.00609756075 0.0304878037 0.0182926822
      0.024390243 0.0182926822 0.024390243 0.0182926822 0.0426829234
      0.0121951215 0.00609756075 0.024390243 0.024390243</_>
    <_>
      0.0545454547 0.0311688296 0.012987013 0.0233766232 0.012987013
      0.0337662324 0.0207792204 0.0155844148 0.0623376593 0.0051948051
      0.00259740255 0.012987013 0.0259740259 0.00259740255 0.0233766232
      0.012987013 0.0155844148 0.0311688296 0.0311688296 0.0103896102
      0.0051948051 0.0233766232 0.0311688296 0.00259740255 0.0103896102
      0.0181818176 0.0311688296 0.038961038 0.0285714287 0.012987013
      0.0155844148 0.0181818176 0.00779220741 0.0207792204 0.0259740259
      0.0103896102 0.0207792204 0.0363636352 0.0311688296 0.0181818176
      0.0155844148 0.0155844148 0.0181818176 0.00259740255 0.038961038
      0.012987013 0.0181818176 0.00779220741 0.0155844148 0.0051948051</_>
    <_>
      0.0157894753 0.042105265 0.0105263162 0.0105263162 0.042105265 0.
      0.0105263162 0.00526315812 0.0263157897 0.0210526325 0.00526315812
      0.0315789506 0. 0.0157894753 0. 0.0315789506 0.0315789506
      0.0473684222 0.00526315812 0.0263157897 0.0157894753 0.042105265
      0.0263157897 0.0105263162 0.0263157897 0.00526315812 0.0210526325
      0.0368421078 0. 0.00526315812 0.0315789506 0.0210526325
      0.0473684222 0.0315789506 0.0105263162 0.0526315793 0.0105263162
      0.0210526325 0.0157894753 0.0263157897 0.0210526325 0.0315789506
      0.0157894753 0.0157894753 0.0157894753 0.0157894753 0.00526315812
      0.0263157897 0.00526315812 0.0105263162</_>
    <_>
      0.0446428582 0.0142857144 0.00892857183 0.0250000004 0.0392857157
      0.042857144 0.0267857146 0.0017857143 0.0392857157 0.0250000004
      0.010714286 0.021428572 0.021428572 0.021428572 0.0142857144
      0.0160714295 0.00892857183 0.0285714287 0.0125000002 0.0178571437
      0.0125000002 0.0285714287 0.0196428578 0.0232142862 0.021428572
      0.021428572 0.0250000004 0.0142857144 0.0285714287 0.00714285718
      0.0196428578 0.005357143 0.0125000002 0.0339285731 0.0142857144
      0.0125000002 0.010714286 0.0160714295 0.021428572 0.0142857144
      0.0196428578 0.0196428578 0.0232142862 0.021428572 0.0160714295
      0.0142857144 0.0250000004 0.0232142862 0.0178571437 0.0160714295</_>
    <_>
      0.0480769239 0.0144230779 0.0144230779 0.0288461559 0.0480769239
      0.052884616 0.0288461559 0.00480769249 0.0432692319 0.00480769249
      0.024038462 0.00961538497 0.00961538497 0.0288461559 0.00961538497
      0.00480769249 0.0144230779 0.0192307699 0.00961538497
      0.00961538497 0.0288461559 0.0673076957 0.0288461559 0.00480769249
      0.00480769249 0. 0.0192307699 0.0192307699 0.0336538479
      0.00480769249 0.0192307699 0.0144230779 0.0192307699 0.0673076957
      0.00480769249 0.00961538497 0.0192307699 0.0384615399 0.0144230779
      0.024038462 0.00480769249 0. 0.0144230779 0.0288461559
      0.00961538497 0.00961538497 0.024038462 0.0288461559 0.00480769249
      0.00480769249</_>
    <_>
      0.0398550741 0.0253623202 0.00905797072 0.0199275371 0.0199275371
      0.0344202891 0.0144927539 0.00362318847 0.0217391308 0.0144927539
      0.0126811601 0.0108695654 0.0380434804 0.0144927539 0.0217391308
      0.0181159414 0.0326086953 0.0398550741 0.0344202891 0.0163043477
      0.0108695654 0.0289855078 0.0289855078 0.0181159414 0.0199275371
      0.0181159414 0.0307971016 0.0144927539 0.0199275371 0.0362318829
      0.0126811601 0.0289855078 0.0163043477 0.0289855078 0.0144927539
      0.00724637695 0.0181159414 0.00905797072 0.0307971016 0.0163043477
      0.0126811601 0.0199275371 0.027173914 0.00724637695 0.0108695654
      0.00724637695 0.0217391308 0.0217391308 0.00905797072 0.0108695654</_>
    <_>
      0.0329670347 0. 0.0109890113 0.0549450554 0.0109890113
      0.0549450554 0.0109890113 0.0109890113 0.0439560451 0. 0.
      0.0109890113 0.0219780225 0.0219780225 0. 0.0109890113 0.
      0.0549450554 0.0659340695 0.0109890113 0.0109890113 0.0439560451
      0.0109890113 0. 0. 0. 0.0659340695 0.0329670347 0. 0.0549450554
      0.0329670347 0.0329670347 0.0109890113 0.0439560451 0.0219780225
      0. 0.0109890113 0.0109890113 0.0109890113 0. 0.0109890113 0.
      0.0219780225 0.0109890113 0.0329670347 0.0219780225 0.0329670347
      0.0329670347 0.0109890113 0.</_>
    <_>
      0.00800000038 0.0240000002 0.0160000008 0.00800000038 0.0560000017
      0.0240000002 0.0160000008 0.0160000008 0.0720000044 0.0560000017
      0.0200000014 0.0120000001 0.0480000004 0.0320000015 0.00800000038
      0.0280000009 0.0400000028 0.00400000019 0.00800000038 0.0160000008
      0.0280000009 0.00400000019 0.0200000014 0.0240000002 0.0120000001
      0.0160000008 0.00800000038 0.0120000001 0.00800000038
      0.00800000038 0.0120000001 0.00400000019 0.0360000022 0.0120000001
      0.0120000001 0.0440000035 0.0160000008 0.0120000001 0.0200000014
      0.0120000001 0.0120000001 0.0160000008 0.0120000001 0.0400000028
      0.00800000038 0.00800000038 0.0160000008 0.0240000002 0.0200000014
      0.0120000001</_>
    <_>
      0.0344827585 0.0344827585 0.0206896551 0.0137931034 0.0482758619
      0.0275862068 0.0068965517 0.0137931034 0.0551724136 0.0344827585
      0.0137931034 0.0068965517 0.0275862068 0.0275862068 0.0137931034
      0.0482758619 0. 0.0344827585 0.0206896551 0.0068965517
      0.0206896551 0.0206896551 0.0275862068 0.0206896551 0.0206896551
      0. 0.0206896551 0.0275862068 0. 0.0068965517 0.0206896551
      0.0068965517 0.0275862068 0.0482758619 0.0068965517 0.0068965517
      0.0068965517 0. 0.0068965517 0.0137931034 0.0068965517
      0.0482758619 0. 0.0068965517 0.0413793102 0.0275862068
      0.0137931034 0.0206896551 0. 0.0344827585</_>
    <_>
      0.0311284047 0.036316473 0.00129701686 0.0194552522 0.00518806744
      0.0207522698 0.0220492873 0.0285343714 0.0129701681 0.00518806744
      0.00259403372 0.0103761349 0.00778210117 0.016861219 0.00778210117
      0.0142671857 0.00648508407 0.0505836569 0.0116731515 0.0220492873
      0.00129701686 0.023346303 0.0207522698 0.0207522698 0.0246433206
      0.0311284047 0.036316473 0.0220492873 0.0544747077 0.0129701681
      0.0272373538 0.0220492873 0.00778210117 0.0311284047 0.0194552522
      0.023346303 0.023346303 0.00907911826 0.0207522698 0.0389105044
      0.0311284047 0.0272373538 0.0259403363 0.00778210117 0.0129701681
      0.0324254222 0.0220492873 0.0129701681 0.00648508407 0.016861219</_>
    <_>
      0.0275862068 0.022413794 0.00344827585 0.0172413792 0.0327586196
      0.0172413792 0.0327586196 0.0137931034 0.0189655162 0.0275862068
      0. 0.0137931034 0.0206896551 0.0137931034 0.00172413792
      0.00862068962 0.0155172413 0.0241379309 0.0155172413 0.0189655162
      0.0068965517 0.0344827585 0.0172413792 0.0120689655 0.0155172413
      0.0586206913 0.0379310325 0.0310344826 0.0379310325 0.0068965517
      0.0172413792 0.022413794 0.0413793102 0.0344827585 0.0137931034
      0.0379310325 0.0103448275 0.0206896551 0.0189655162 0.0120689655
      0.0137931034 0.0206896551 0.0172413792 0.00517241377 0.0155172413
      0.0137931034 0.0344827585 0.0189655162 0.0206896551 0.00517241377</_>
    <_>
      0.00884955749 0.00589970499 0.00884955749 0.017699115 0.0442477874
      0.017699115 0.0206489675 0.00884955749 0.0648967549 0.02359882
      0.01179941 0.00884955749 0.02359882 0.02359882 0.02359882
      0.00884955749 0.0383480825 0.0206489675 0.0324483775 0.0324483775
      0.0206489675 0.017699115 0.0147492625 0.00884955749 0.017699115
      0.0206489675 0.02359882 0.0265486725 0.0206489675 0.0206489675
      0.00589970499 0.0324483775 0.0147492625 0.02359882 0.0206489675
      0.0206489675 0.017699115 0.0265486725 0.0147492625 0.00884955749
      0.01179941 0.02359882 0.0265486725 0.00589970499 0.01179941
      0.00884955749 0.0147492625 0.017699115 0.0442477874 0.01179941</_>
    <_>
      0.0190217402 0.00815217383 0.0190217402 0.0217391308 0.0326086953
      0.00815217383 0.00815217383 0.0570652187 0.0244565215
      0.00543478271 0.00815217383 0.00271739135 0.0108695654 0.027173914
      0.0217391308 0.0217391308 0.00815217383 0.0163043477 0.0326086953
      0.0244565215 0.0108695654 0.0190217402 0.0298913047 0.0516304374
      0.0326086953 0.0190217402 0.0163043477 0.0163043477 0.0461956523
      0.013586957 0.0163043477 0.0298913047 0.0190217402 0.0163043477
      0.0163043477 0.0244565215 0.0190217402 0.00815217383 0.00815217383
      0.0217391308 0.0298913047 0.040760871 0.00815217383 0.0108695654
      0.00543478271 0.027173914 0.027173914 0.0108695654 0.00543478271
      0.0217391308</_>
    <_>
      0.0228832942 0.0205949657 0.00915331766 0.0228832942 0.0755148679
      0.00686498825 0.0137299765 0.00915331766 0.0686498806 0.0137299765
      0.00228832942 0.016018305 0.00686498825 0.0228832942 0.00228832942
      0.016018305 0.00457665883 0.0480549186 0.0114416471 0.0183066353
      0.0137299765 0.0457665883 0.00915331766 0.0183066353 0.0137299765
      0.043478258 0.0320366099 0.016018305 0.0366132706 0.00457665883
      0.0183066353 0.00915331766 0.0228832942 0.0503432453 0.0114416471
      0.043478258 0. 0.0183066353 0.00915331766 0.0137299765
      0.0114416471 0.0183066353 0.00915331766 0.00686498825
      0.00686498825 0.0114416471 0.038901601 0.0205949657 0.027459953
      0.00686498825</_>
    <_>
      0.00389105058 0.0285343714 0.0142671857 0.0194552522 0.0311284047
      0.023346303 0.0194552522 0.023346303 0.0324254222 0.0285343714
      0.0103761349 0.0142671857 0.0207522698 0.0272373538 0.0129701681
      0.0298313871 0.023346303 0.0142671857 0.016861219 0.016861219
      0.0116731515 0.0155642023 0.0259403363 0.0116731515 0.0194552522
      0.0207522698 0.0194552522 0.0181582365 0.0194552522 0.0181582365
      0.0259403363 0.0298313871 0.0194552522 0.016861219 0.00518806744
      0.0285343714 0.0181582365 0.0142671857 0.0116731515 0.0246433206
      0.0181582365 0.0194552522 0.0298313871 0.0220492873 0.0142671857
      0.0220492873 0.0246433206 0.016861219 0.0259403363 0.0207522698</_>
    <_>
      0.00555555569 0.00277777785 0.0194444451 0.0444444455 0.0250000004
      0.0250000004 0.013888889 0.0222222228 0.0638888925 0.00277777785
      0. 0.027777778 0.027777778 0.0194444451 0.0250000004 0.027777778
      0.0194444451 0.00833333377 0.0388888903 0.0222222228 0.013888889
      0.0194444451 0.0305555556 0.0166666675 0.0111111114 0.013888889
      0.0166666675 0.0305555556 0.0222222228 0.0111111114 0.00833333377
      0.0305555556 0.027777778 0.0305555556 0.013888889 0.0222222228
      0.0250000004 0.00833333377 0.013888889 0.013888889 0.0194444451
      0.0194444451 0.0166666675 0.013888889 0.0166666675 0.0166666675
      0.0166666675 0.013888889 0.0166666675 0.027777778</_>
    <_>
      0. 0. 0.0370370373 0.013888889 0.0462962985 0.013888889
      0.027777778 0.013888889 0.027777778 0.0416666679 0.0185185187
      0.013888889 0.00462962966 0.0324074067 0.0231481493 0.027777778
      0.055555556 0.027777778 0.0231481493 0.027777778 0.027777778 0.
      0.0231481493 0.0231481493 0. 0.00925925933 0.013888889
      0.00462962966 0.00925925933 0.0185185187 0.0185185187
      0.00925925933 0.0324074067 0.0185185187 0.00462962966 0.027777778
      0.013888889 0.013888889 0. 0.0324074067 0.0185185187 0.027777778
      0.0416666679 0.0185185187 0.00462962966 0.013888889 0.0185185187
      0.0231481493 0.0416666679 0.013888889</_>
    <_>
      0.0456730798 0.012019231 0.00240384624 0.00961538497 0.00721153896
      0.036057692 0.00961538497 0.0480769239 0.0552884638 0.036057692
      0.00961538497 0.026442308 0.0673076957 0.0144230779 0.
      0.0192307699 0.0384615399 0.00721153896 0.0889423117 0.0144230779
      0.00721153896 0.021634616 0.012019231 0.0144230779 0.00721153896
      0.0144230779 0.00721153896 0.012019231 0.00961538497 0.0432692319
      0.012019231 0.021634616 0.0144230779 0.0192307699 0.00480769249
      0.012019231 0.012019231 0.012019231 0.00961538497 0. 0.0697115436
      0.00961538497 0.036057692 0.00240384624 0.00721153896 0.0144230779
      0.012019231 0.0144230779 0.0144230779 0.00480769249</_>
    <_>
      0.0203389823 0.0135593219 0.0271186437 0.00677966094 0.0576271191
      0.0135593219 0.023728814 0.0135593219 0.0847457647 0.0508474559
      0.023728814 0.0203389823 0.0406779647 0.023728814 0.0203389823
      0.0101694912 0.0203389823 0.0135593219 0.00338983047 0.0101694912
      0.0169491526 0.00677966094 0.0101694912 0.023728814 0.0305084735
      0.00677966094 0.00677966094 0.0101694912 0.00338983047
      0.0169491526 0.0338983051 0.0135593219 0.0169491526 0.0135593219
      0.0203389823 0.0101694912 0.0203389823 0.023728814 0.0135593219
      0.0169491526 0.0271186437 0.0135593219 0.00677966094 0.047457628
      0.00677966094 0.0203389823 0.0101694912 0.0101694912 0.0338983051
      0.0101694912</_>
    <_>
      0.00787401572 0.00787401572 0.0118110236 0.00787401572
      0.0433070883 0.0118110236 0.0236220472 0.0177165344 0.0196850393
      0.0452755913 0.0118110236 0.027559055 0.0216535442 0.0472440943
      0.0295275599 0.0314960629 0.00590551179 0.0157480314 0.0118110236
      0.00984251965 0.00984251965 0.0216535442 0.0137795275 0.0196850393
      0.027559055 0.027559055 0.00984251965 0.0236220472 0.0177165344
      0.00984251965 0.0393700786 0.00393700786 0.0157480314
      0.00590551179 0.00590551179 0.0137795275 0.0255905502 0.0216535442
      0.00787401572 0.027559055 0.0157480314 0.0236220472 0.0374015756
      0.0334645659 0.00590551179 0.0157480314 0.0354330689 0.0393700786
      0.0157480314 0.0196850393</_>
    <_>
      0. 0.0147783253 0.00492610829 0.0295566507 0.0837438405
      0.00985221658 0.0295566507 0.0295566507 0.0837438405 0.0443349741
      0.00985221658 0.024630541 0.024630541 0.0147783253 0.0147783253
      0.0197044332 0. 0.0344827585 0.00492610829 0.00492610829
      0.00492610829 0.024630541 0.0197044332 0.0147783253 0.0394088663
      0.0147783253 0.0295566507 0.0295566507 0.0394088663 0.
      0.00985221658 0.00985221658 0.00985221658 0.0197044332
      0.00492610829 0.0344827585 0.00492610829 0.024630541 0.00985221658
      0.0295566507 0.00492610829 0.0147783253 0.00985221658 0.0147783253
      0.0147783253 0.0147783253 0.024630541 0.00985221658 0.00985221658
      0.024630541</_>
    <_>
      0.0583333373 0.0416666679 0.0166666675 0. 0.0416666679
      0.0166666675 0. 0.0500000045 0.0333333351 0.00833333377
      0.0166666675 0.00833333377 0.0250000022 0.0250000022 0.0166666675
      0.0166666675 0. 0.0250000022 0. 0.00833333377 0.0166666675
      0.0333333351 0.00833333377 0.00833333377 0.0250000022 0.0166666675
      0.0500000045 0.0333333351 0.0166666675 0. 0.00833333377
      0.00833333377 0.0500000045 0.0416666679 0.00833333377 0.0250000022
      0.0166666675 0.0250000022 0.0166666675 0. 0.0500000045
      0.00833333377 0.00833333377 0.0166666675 0.0250000022 0.0166666675
      0. 0. 0.0333333351 0.0250000022</_>
    <_>
      0.0212014131 0.0424028262 0.0106007066 0.0212014131 0.0282685515
      0.0176678449 0.0212014131 0.0212014131 0.0424028262 0.0212014131
      0.00353356893 0.0176678449 0.0212014131 0.0106007066 0.0247349832
      0.0212014131 0.0106007066 0.038869258 0.0141342757 0.038869258 0.
      0.0141342757 0.0176678449 0.0106007066 0.0282685515 0.0212014131
      0.0141342757 0.0318021215 0.00353356893 0.00353356893 0.0176678449
      0.0141342757 0.00706713786 0.0141342757 0.00706713786 0.0106007066
      0.0318021215 0. 0.0141342757 0.0671378076 0.0106007066
      0.0318021215 0.0424028262 0.00706713786 0.0247349832 0.0212014131
      0.0247349832 0.00706713786 0.0247349832 0.0282685515</_>
    <_>
      0.0102827763 0.0128534706 0.0205655526 0.0102827763 0.0179948583
      0.0231362469 0.00771208201 0.0231362469 0.030848328 0.0745501295
      0.0231362469 0.0102827763 0.0565552711 0.0462724939 0.015424164
      0.0102827763 0.0205655526 0.00514138816 0.0257069413 0.0179948583
      0.0128534706 0.0231362469 0.0179948583 0.0179948583 0.0205655526
      0.015424164 0.00771208201 0.0128534706 0.015424164 0.015424164
      0.0282776356 0.0179948583 0.0179948583 0.030848328 0.00514138816
      0.0179948583 0.0205655526 0.0102827763 0.0179948583 0.00771208201
      0.0257069413 0.0282776356 0.00771208201 0.030848328 0.0205655526
      0.00257069408 0.0179948583 0.0359897166 0.00771208201 0.0257069413</_>
    <_>
      0.0296610165 0.0105932206 0.0211864412 0.0190677959 0.0423728824
      0.00847457629 0.012711864 0.0275423732 0.0381355919 0.0381355919
      0.00847457629 0.00635593198 0.0211864412 0.0190677959 0.0254237279
      0.0317796618 0.0169491526 0.00423728814 0.0211864412 0.0317796618
      0.0169491526 0.00635593198 0.0360169485 0.0169491526 0.0381355919
      0.0105932206 0.0169491526 0.0169491526 0.0233050846 0.0296610165
      0.0254237279 0.0233050846 0.0190677959 0.00847457629 0.012711864
      0.0211864412 0.0148305083 0.00635593198 0.00423728814 0.0360169485
      0.0233050846 0.0148305083 0.00635593198 0.0360169485 0.00847457629
      0.0169491526 0.012711864 0.012711864 0.00847457629 0.0423728824</_>
    <_>
      0.0476190485 0.00366300368 0.0402930416 0.00732600736 0.0439560451
      0.00366300368 0.025641026 0.0183150191 0.051282052 0.0293040294
      0.0293040294 0.025641026 0.0146520147 0.025641026 0.0109890113
      0.0146520147 0.00366300368 0.00732600736 0. 0.00366300368
      0.025641026 0.00366300368 0.0329670347 0.0219780225 0.0366300382
      0. 0.00732600736 0.025641026 0. 0.00732600736 0.0219780225
      0.0183150191 0.0402930416 0.0109890113 0.00366300368 0.051282052
      0.0329670347 0.025641026 0.0146520147 0.0183150191 0.00366300368
      0.0219780225 0.0183150191 0.051282052 0.00366300368 0.0183150191
      0.0146520147 0.0219780225 0.025641026 0.0146520147</_>
    <_>
      0.0251748264 0.0153846163 0.0153846163 0.0181818195 0.0405594409
      0.0153846163 0.0223776232 0.0209790226 0.0391608402 0.0363636389
      0.0111888116 0.0321678333 0.0279720295 0.0251748264 0.0139860148
      0.0153846163 0.0181818195 0.0209790226 0.00839160848 0.026573427
      0.0139860148 0.0195804201 0.0377622396 0.0153846163 0.00979021005
      0.0139860148 0.0209790226 0.0153846163 0.00419580424 0.00979021005
      0.0293706302 0.0195804201 0.0251748264 0.0279720295 0.0153846163
      0.0195804201 0.0209790226 0.0223776232 0.0181818195 0.0209790226
      0.0293706302 0.0125874132 0.0279720295 0.0153846163 0.00419580424
      0.0139860148 0.0209790226 0.0111888116 0.0279720295 0.00699300738</_>
    <_>
      0.013661202 0.0163934417 0.0245901626 0.0163934417 0.0491803251
      0.00819672085 0.0245901626 0.0163934417 0.0601092875 0.0355191231
      0.00546448072 0.013661202 0.013661202 0.0491803251 0.0109289614
      0.0300546438 0.00819672085 0.00273224036 0.0300546438 0.0109289614
      0.00546448072 0.00819672085 0.0300546438 0.013661202 0.0245901626
      0.00546448072 0.00819672085 0.0163934417 0.0163934417 0.0273224041
      0.0355191231 0.0245901626 0.0109289614 0.0273224041 0.00819672085
      0.0191256832 0.0109289614 0.0109289614 0.0191256832 0.0218579229
      0.0355191231 0.0355191231 0.00819672085 0.0300546438 0.00819672085
      0.0273224041 0.0191256832 0.0327868834 0.00546448072 0.013661202</_>
    <_>
      0. 0.0252100863 0.00420168089 0.0168067235 0.0672268942
      0.021008404 0.0252100863 0.0294117667 0.0420168079 0.021008404
      0.0126050431 0.00420168089 0.0126050431 0.0168067235 0.0294117667
      0.0168067235 0.0126050431 0.021008404 0. 0.0126050431 0.
      0.0420168079 0.0252100863 0.0378151275 0.021008404 0.00840336177
      0.0126050431 0.0126050431 0.0840336159 0.0168067235 0.0126050431
      0.0126050431 0.0252100863 0.0294117667 0.00840336177 0.021008404
      0.00420168089 0. 0.00420168089 0.0420168079 0.0168067235
      0.0168067235 0.0168067235 0.0126050431 0.00840336177 0.021008404
      0.0336134471 0.021008404 0.0294117667 0.0126050431</_>
    <_>
      0.0329670347 0.0164835174 0.00549450563 0.0219780225 0.0494505502
      0.0109890113 0.00549450563 0.0219780225 0.0384615399 0.0439560451
      0.00549450563 0.0219780225 0.0109890113 0.0384615399 0.0164835174
      0.0109890113 0.0274725277 0.0164835174 0.0219780225 0.
      0.0109890113 0.0164835174 0.0109890113 0.0164835174 0.0164835174
      0.0164835174 0.0439560451 0.0274725277 0.0164835174 0.0109890113
      0.0164835174 0.0274725277 0.0274725277 0.0219780225 0.0164835174
      0.0274725277 0. 0.0109890113 0.0109890113 0.00549450563
      0.0329670347 0.0219780225 0.00549450563 0.0164835174 0.0164835174
      0.0439560451 0.0219780225 0.0384615399 0.0164835174 0.0164835174</_>
    <_>
      0.0542857125 0.0285714287 0. 0.0199999996 0.0314285718
      0.0457142852 0.0228571426 0.00857142825 0.042857144 0.0142857144
      0. 0.0114285713 0.0142857144 0.0142857144 0.0485714264
      0.00857142825 0.0199999996 0.0257142857 0.0228571426 0.0142857144
      0.0114285713 0.0314285718 0.0114285713 0.0142857144 0.00571428565
      0.0142857144 0.0171428565 0.0257142857 0.0257142857 0.0457142852
      0.00571428565 0.00857142825 0.0171428565 0.0285714287 0.0485714264
      0.0114285713 0.0171428565 0.0171428565 0.0285714287 0.00571428565
      0.0199999996 0.00857142825 0.042857144 0. 0.0171428565
      0.0114285713 0.0114285713 0.00857142825 0.0371428579 0.00285714283</_>
    <_>
      0.00955414027 0.0159235671 0.0191082805 0.00955414027 0.0509554148
      0.0191082805 0.00955414027 0.0159235671 0.0414012745 0.0796178356
      0.0254777074 0.00955414027 0.0191082805 0.0127388537 0.
      0.0191082805 0.0541401282 0.00318471342 0.00955414027 0.022292994
      0.0127388537 0.0159235671 0.0350318477 0.022292994 0.0254777074
      0.0254777074 0.00955414027 0.0254777074 0.00318471342
      0.00955414027 0.0159235671 0.0477707013 0.022292994 0.00636942685
      0.0127388537 0.0159235671 0.0254777074 0.0127388537 0.0191082805
      0.022292994 0.0286624208 0.0191082805 0.0159235671 0.0286624208
      0.0318471342 0.00636942685 0.00955414027 0.0127388537
      0.00955414027 0.00636942685</_>
    <_>
      0.0131332083 0.0187617261 0.024390243 0.0112570357 0.0393996239
      0.0187617261 0.0150093809 0.0206378996 0.0656660423 0.0412757993
      0.00938086305 0.00750469044 0.0300187618 0.0356472805 0.0281425901
      0.0150093809 0.024390243 0.0356472805 0.0131332083 0.0262664165
      0.0187617261 0.0150093809 0.00938086305 0.024390243 0.0187617261
      0.0187617261 0.0150093809 0.0187617261 0.0168855526 0.00750469044
      0.0187617261 0.0112570357 0.0225140713 0.024390243 0.00562851783
      0.0150093809 0.00750469044 0.0168855526 0.0112570357 0.0168855526
      0.0225140713 0.0187617261 0.0150093809 0.0337711051 0.0187617261
      0.00938086305 0.00938086305 0.0281425901 0.0225140713 0.0150093809</_>
    <_>
      0.010309278 0.00515463902 0.0257731955 0.0154639166 0.0670103058
      0. 0.0206185561 0.0257731955 0.0876288638 0.0463917516 0.010309278
      0.010309278 0.0206185561 0.0618556663 0.0309278332 0.010309278
      0.010309278 0. 0.010309278 0.0154639166 0.0309278332 0.00515463902
      0.010309278 0.010309278 0.0309278332 0.00515463902 0.00515463902
      0.0154639166 0.0154639166 0.010309278 0.0257731955 0.0206185561
      0.010309278 0.010309278 0.010309278 0.0309278332 0.00515463902
      0.0154639166 0.010309278 0.010309278 0.0154639166 0.0206185561
      0.0206185561 0.0463917516 0. 0.0206185561 0.0206185561
      0.0360824727 0.0309278332 0.0154639166</_>
    <_>
      0.0369393155 0.0237467028 0.00263852254 0.0211081803 0.0131926127
      0.0369393155 0.0131926127 0.0158311352 0.100263856 0.0158311352
      0.0131926127 0.00791556761 0.034300793 0.0131926127 0.0316622704
      0.0211081803 0.0131926127 0.0316622704 0.0316622704 0.0316622704
      0.00791556761 0.0211081803 0.0105540901 0.00791556761
      0.00791556761 0.0263852254 0.0184696577 0.00263852254 0.0263852254
      0.0237467028 0.0105540901 0.039577838 0.00791556761 0.0369393155
      0.0263852254 0.00263852254 0.0211081803 0.0131926127 0.0211081803
      0.0527704507 0.00791556761 0.0105540901 0.0263852254 0.
      0.0263852254 0.00791556761 0.00791556761 0.00791556761
      0.00527704507 0.00527704507</_>
    <_>
      0. 0. 0.010416667 0.020833334 0.104166672 0.020833334 0. 0.
      0.0729166716 0.010416667 0.010416667 0.0520833358 0. 0.03125
      0.03125 0.010416667 0.010416667 0.010416667 0.010416667 0.
      0.010416667 0.0833333358 0.020833334 0.010416667 0.03125 0.03125
      0.03125 0.020833334 0. 0.010416667 0.0520833358 0. 0.020833334
      0.0625 0.03125 0.020833334 0.010416667 0.020833334 0.020833334 0.
      0. 0.010416667 0.03125 0.010416667 0. 0.010416667 0.010416667
      0.020833334 0. 0.010416667</_>
    <_>
      0.0558659211 0.0614525117 0.011173184 0.011173184 0.078212291
      0.0167597756 0.011173184 0.00558659201 0.0223463681 0.0335195512
      0.00558659201 0.0223463681 0.00558659201 0.011173184 0.0167597756
      0.0223463681 0. 0.0223463681 0.011173184 0.011173184 0.
      0.0391061455 0.011173184 0.00558659201 0.00558659201 0.011173184
      0.0335195512 0.011173184 0.0335195512 0. 0.0223463681 0.
      0.011173184 0.011173184 0.011173184 0.011173184 0.011173184 0.
      0.0223463681 0.0837988779 0.0446927361 0.0223463681 0.00558659201
      0.00558659201 0.0223463681 0.0167597756 0.0223463681 0.0223463681
      0.0446927361 0.0223463681</_>
    <_>
      0.0201793723 0.0179372206 0.015695069 0.00896861032 0.0470852032
      0.0179372206 0.015695069 0.0179372206 0.0627802759 0.0426008999
      0.0134529155 0.015695069 0.0224215258 0.0224215258 0.0134529155
      0.0246636793 0.0246636793 0.0291479826 0.0112107629 0.015695069
      0.0112107629 0.0112107629 0.0336322896 0.0246636793 0.0381165929
      0.0179372206 0.00896861032 0.015695069 0.0269058309 0.00672645774
      0.0134529155 0.0291479826 0.00672645774 0.0201793723 0.0112107629
      0.0224215258 0.00448430516 0.00672645774 0.015695069 0.015695069
      0.0246636793 0.0224215258 0.0134529155 0.0291479826 0.00448430516
      0.0224215258 0.0269058309 0.0179372206 0.00896861032 0.0291479826</_>
    <_>
      0.0347222239 0.0069444445 0.013888889 0.0416666679 0.020833334
      0.020833334 0.0069444445 0.0347222239 0.027777778 0.0069444445
      0.013888889 0.0416666679 0.013888889 0.0347222239 0.0069444445
      0.013888889 0.020833334 0.0069444445 0.0069444445 0.0069444445
      0.013888889 0.0694444478 0.013888889 0.0069444445 0.013888889
      0.013888889 0.027777778 0.013888889 0.0069444445 0. 0.0347222239
      0.020833334 0.027777778 0.0625 0.0069444445 0.0347222239
      0.013888889 0.0486111119 0.0069444445 0. 0.013888889 0.027777778
      0.0069444445 0.013888889 0.0416666679 0.027777778 0.020833334
      0.013888889 0.0069444445 0.0069444445</_>
    <_>
      0.0371229686 0.0139211137 0.00696055684 0.016241299 0.0232018549
      0.0487238951 0.0301624127 0.0185614843 0.0487238951 0.0139211137
      0.00696055684 0.032482598 0.0255220402 0.0301624127 0.0348027833
      0.0116009274 0.00928074215 0.032482598 0.0208816696 0.016241299
      0.0232018549 0.016241299 0.0255220402 0.0139211137 0.0185614843
      0.0278422274 0.0278422274 0.0301624127 0.00928074215 0.0185614843
      0.0139211137 0.0301624127 0.0185614843 0.0208816696 0.0208816696
      0.0116009274 0.016241299 0.0139211137 0.00928074215 0.016241299
      0.0139211137 0.0116009274 0.0533642657 0.00696055684 0.00928074215
      0.00232018554 0.0139211137 0.00696055684 0.0116009274
      0.00928074215</_>
    <_>
      0.0146520147 0.00732600736 0.0183150191 0.0183150191 0.0109890113
      0.0219780225 0.0219780225 0.0183150191 0.0402930416 0.0109890113
      0.00732600736 0.0183150191 0.0109890113 0.025641026 0.0329670347
      0.0109890113 0.0219780225 0.0219780225 0.025641026 0.0109890113
      0.00732600736 0.0219780225 0.0366300382 0.0402930416 0.0183150191
      0.025641026 0.0109890113 0.0109890113 0.0183150191 0.0219780225
      0.0439560451 0.0109890113 0.0219780225 0.0146520147 0.0219780225
      0.0109890113 0.0402930416 0.025641026 0.0146520147 0.0476190485
      0.0109890113 0.0146520147 0.0219780225 0.0183150191 0.0146520147
      0.0146520147 0.00732600736 0.0183150191 0.0219780225 0.0219780225</_>
    <_>
      0.012244897 0.00816326495 0.00816326495 0.0163265299 0.0367346928
      0.0408163257 0.00816326495 0.0326530598 0.0816326514 0.0367346928
      0. 0.0163265299 0.00408163248 0.0163265299 0.0204081628
      0.00408163248 0.0326530598 0.0693877488 0.012244897 0.0163265299
      0. 0.012244897 0.0285714269 0.0326530598 0. 0.012244897
      0.0408163257 0.0244897939 0.0367346928 0.0163265299 0.012244897
      0.0448979586 0. 0.0244897939 0.00816326495 0.0163265299
      0.00816326495 0.012244897 0.0163265299 0.0244897939 0.0367346928
      0.00408163248 0.0285714269 0.00408163248 0.0285714269
      0.00408163248 0.00408163248 0.0204081628 0.0163265299
      0.00816326495</_>
    <_>
      0.0224215258 0. 0.0179372206 0.0134529155 0.0358744413
      0.0403587446 0.0179372206 0.0224215258 0.0224215258 0.0358744413
      0.0134529155 0.0134529155 0.0582959652 0.0224215258 0.031390138
      0.031390138 0.0269058309 0.00448430516 0.0134529155 0.0224215258
      0.00896861032 0.0493273586 0.00896861032 0.0134529155 0.0134529155
      0.0134529155 0.0224215258 0.0269058309 0. 0.0179372206
      0.0269058309 0.0403587446 0.00448430516 0.0269058309 0.0224215258
      0.00896861032 0.00448430516 0.0269058309 0.00896861032
      0.00448430516 0.0269058309 0.0224215258 0.00896861032 0.0179372206
      0.00896861032 0.0224215258 0.0224215258 0.0134529155 0.0358744413
      0.00448430516</_>
    <_>
      0.00558659248 0.0167597774 0.0297951587 0.00558659248 0.0223463699
      0.0316573568 0.0279329605 0.0242085662 0.0428305417 0.0242085662
      0.00931098685 0.0186219737 0.0223463699 0.0242085662 0.00931098685
      0.0130353821 0.0148975793 0.0260707643 0.011173185 0.0260707643
      0.0204841718 0.0279329605 0.0260707643 0.0148975793 0.0223463699
      0.0297951587 0.011173185 0.0130353821 0.0204841718 0.0242085662
      0.0204841718 0.0204841718 0.0148975793 0.0204841718 0.00931098685
      0.0297951587 0.011173185 0.00931098685 0.0148975793 0.0148975793
      0.0204841718 0.0223463699 0.0186219737 0.0353817493 0.0223463699
      0.0167597774 0.0186219737 0.0204841718 0.0372439474 0.00558659248</_>
    <_>
      0.00719424477 0.0215827338 0.023980815 0.0215827338 0.023980815
      0.0215827338 0.0383693054 0.0167865716 0.0407673866 0.00959232636
      0.0119904075 0.0287769791 0.0215827338 0.0287769791 0.00959232636
      0.023980815 0.00239808159 0.0215827338 0.0119904075 0.0311750602
      0.0143884895 0.0191846527 0.0143884895 0.0407673866 0.00959232636
      0.023980815 0.0167865716 0.0287769791 0.00719424477 0.0167865716
      0.026378898 0.00479616318 0.0311750602 0.0143884895 0.0191846527
      0.00959232636 0.0143884895 0.0287769791 0.0143884895 0.0191846527
      0.0143884895 0.0191846527 0.026378898 0.0311750602 0.00479616318
      0.0215827338 0.0503597148 0.026378898 0.0119904075 0.00239808159</_>
    <_>
      0.0102564106 0.00512820529 0.0205128212 0.0307692327 0.0461538471
      0.0153846163 0.0102564106 0.025641026 0.0564102568 0.0307692327
      0.0102564106 0.0102564106 0.0153846163 0.0410256423 0.0205128212
      0.00512820529 0.025641026 0.0102564106 0.025641026 0.00512820529
      0.0153846163 0.0410256423 0.0153846163 0.0153846163 0.0102564106
      0.00512820529 0.0153846163 0.025641026 0.0102564106 0.0307692327
      0.025641026 0.0153846163 0.0358974375 0.0153846163 0.0153846163
      0.0205128212 0.0102564106 0.0102564106 0.00512820529 0.0102564106
      0.0153846163 0.0205128212 0.0102564106 0.0307692327 0.0153846163
      0.0307692327 0.025641026 0.0358974375 0.025641026 0.0205128212</_>
    <_>
      0.0370370373 0.00740740728 0. 0.0222222209 0.05185185 0.0444444418
      0.00740740728 0.0148148146 0.05185185 0.0370370373 0.0148148146
      0.0148148146 0. 0.00740740728 0.0222222209 0.0148148146
      0.0222222209 0.0296296291 0.0296296291 0.0148148146 0.
      0.0444444418 0.0222222209 0.00740740728 0.0296296291 0.0148148146
      0.0222222209 0.0148148146 0.0148148146 0.0222222209 0.00740740728
      0.00740740728 0.00740740728 0.0148148146 0.0148148146
      0.00740740728 0.0370370373 0. 0.0296296291 0.00740740728
      0.0148148146 0.0222222209 0.0444444418 0. 0.0370370373
      0.0148148146 0.0222222209 0.00740740728 0.0444444418 0.0222222209</_>
    <_>
      0.0160000008 0.0160000008 0.00800000038 0.0160000008 0.00800000038
      0.00800000038 0.0240000002 0. 0.0400000028 0.0320000015
      0.00800000038 0.00800000038 0.00800000038 0.0400000028
      0.0160000008 0.00800000038 0.0160000008 0.0160000008 0.0160000008
      0.0400000028 0.00800000038 0.0400000028 0.0240000002 0.0240000002
      0.0320000015 0. 0. 0. 0.0240000002 0.00800000038 0.0240000002 0.
      0.0320000015 0.0240000002 0.0240000002 0.0240000002 0.0400000028
      0.0320000015 0.0160000008 0.0480000004 0.0320000015 0.0160000008
      0. 0.0240000002 0.0240000002 0.0160000008 0.0400000028
      0.00800000038 0.0240000002 0.0480000004</_>
    <_>
      0.00612244848 0.0285714269 0.012244897 0.00816326495 0.0387755074
      0.0142857134 0.0163265299 0.012244897 0.0612244867 0.0367346928
      0.0142857134 0.00612244848 0.0306122433 0.0224489793 0.012244897
      0.0142857134 0.0244897939 0.0387755074 0.012244897 0.0306122433
      0.0163265299 0.012244897 0.0163265299 0.0183673464 0.0265306104
      0.0142857134 0.0265306104 0.0102040814 0.0244897939 0.0224489793
      0.0102040814 0.0346938744 0.0244897939 0.0204081628 0.00816326495
      0.0224489793 0.0102040814 0.00612244848 0.0183673464 0.0265306104
      0.0265306104 0.0265306104 0.0387755074 0.0326530598 0.00612244848
      0.0102040814 0.00816326495 0.0102040814 0.0142857134 0.0163265299</_>
    <_>
      0.00649350649 0.012987013 0.012987013 0.019480519 0.097402595
      0.0259740259 0.0259740259 0.038961038 0.0324675329 0.0454545468
      0.012987013 0.012987013 0.00649350649 0.038961038 0.0454545468
      0.012987013 0.0324675329 0.019480519 0.019480519 0.012987013
      0.00649350649 0.0324675329 0.00649350649 0. 0.012987013 0.
      0.0259740259 0. 0. 0.00649350649 0.012987013 0. 0.00649350649
      0.0324675329 0.019480519 0.019480519 0. 0.019480519 0.012987013
      0.038961038 0.019480519 0.0324675329 0.0259740259 0.012987013
      0.012987013 0.012987013 0.0259740259 0.0454545468 0.019480519
      0.00649350649</_>
    <_>
      0.0304878037 0.0101626012 0.0203252025 0.008130081 0.0508130044
      0.0101626012 0.0304878037 0.0264227632 0.048780486 0.0386178866
      0.0142276417 0.0182926822 0.0386178866 0.0345528424 0.0142276417
      0.0182926822 0.0040650405 0.024390243 0.0121951215 0.0284552835
      0.0121951215 0.0101626012 0.024390243 0.0203252025 0.00609756075
      0.0101626012 0.0223577227 0.016260162 0.0203252025 0.0142276417
      0.032520324 0.00609756075 0.0203252025 0.024390243 0.0182926822
      0.0121951215 0.0182926822 0.016260162 0.008130081 0.0142276417
      0.0121951215 0.0223577227 0.00609756075 0.040650405 0.0040650405
      0.0304878037 0.0142276417 0.032520324 0.0203252025 0.008130081</_>
    <_>
      0.0296874996 0.0187500007 0.00625000009 0.0140625006 0.0140625006
      0.0265625007 0.0125000002 0.0171875004 0.0109374998 0.0437499993
      0.00312500005 0.00937500037 0.0265625007 0.0140625006 0.0437499993
      0.0234375 0.0531250015 0.0171875004 0.03125 0.0187500007 0.0078125
      0.03125 0.0187500007 0.0140625006 0.0125000002 0.0140625006
      0.0218749996 0.0218749996 0.015625 0.0203125011 0.00937500037
      0.0515624993 0.00937500037 0.0390625 0.0218749996 0.0140625006
      0.00937500037 0.0078125 0.0218749996 0.015625 0.0218749996
      0.015625 0.0406250022 0.00625000009 0.0328125022 0.00625000009
      0.0125000002 0.0078125 0.0375000015 0.00625000009</_>
    <_>
      0.00904977415 0.0226244349 0.0248868782 0.0180995483 0.0180995483
      0.0226244349 0.0226244349 0.0203619916 0.0542986467 0.0113122175
      0.0248868782 0.0203619916 0.00904977415 0.0226244349 0.0113122175
      0.015837105 0.0203619916 0.0180995483 0.015837105 0.0135746617
      0.0113122175 0.015837105 0.0407239832 0.0226244349 0.00452488707
      0.0203619916 0.0180995483 0.00904977415 0.0226244349 0.0248868782
      0.03167421 0.0180995483 0.0135746617 0.0180995483 0.015837105
      0.00904977415 0.0248868782 0.0203619916 0.0180995483 0.0180995483
      0.0203619916 0.00678733084 0.0339366533 0.0339366533 0.00904977415
      0.0203619916 0.03167421 0.0452488698 0.0180995483 0.00678733084</_>
    <_>
      0.0173697267 0.00496277912 0.00992555823 0.012406948 0.0322580636
      0.0322580636 0.012406948 0.024813896 0.0645161271 0.024813896
      0.00992555823 0.00744416844 0.0372208431 0.0446650125
      0.00744416844 0.012406948 0.0173697267 0.0347394533 0.0148883369
      0.0223325063 0.0198511165 0.012406948 0.0421836227 0.0198511165
      0.0347394533 0.024813896 0.012406948 0.0148883369 0.00744416844
      0.0173697267 0.0198511165 0.00992555823 0.00744416844 0.0272952858
      0.0198511165 0.0148883369 0.0198511165 0.0223325063 0.00992555823
      0.024813896 0.024813896 0.0173697267 0.012406948 0.0297766738
      0.00992555823 0.0148883369 0.00744416844 0.024813896 0.0198511165
      0.012406948</_>
    <_>
      0.0990990996 0. 0.0180180185 0.045045048 0. 0.0720720738
      0.0270270277 0.0270270277 0.0270270277 0.00900900923 0.045045048
      0.00900900923 0.0270270277 0.0360360369 0. 0. 0.0180180185
      0.0180180185 0.0540540554 0.00900900923 0.0180180185 0.00900900923
      0.0270270277 0. 0. 0.0180180185 0.0270270277 0.0180180185
      0.00900900923 0. 0.0360360369 0.0180180185 0.0180180185
      0.0180180185 0. 0.00900900923 0.0270270277 0.0270270277 0.
      0.045045048 0.00900900923 0.00900900923 0.0180180185 0.0270270277
      0. 0.0360360369 0.00900900923 0.0180180185 0. 0.00900900923</_>
    <_>
      0.0163934417 0.0245901626 0.0327868834 0.0327868834 0.0245901626
      0.0491803251 0.0327868834 0. 0.0573770478 0.00819672085 0.
      0.0327868834 0. 0. 0.0409836024 0.0245901626 0.00819672085
      0.0245901626 0. 0. 0.0327868834 0.0573770478 0. 0.00819672085
      0.0327868834 0.0163934417 0.00819672085 0.00819672085 0. 0.
      0.0163934417 0. 0.0491803251 0.0327868834 0.00819672085
      0.0737704858 0.00819672085 0.0163934417 0.0245901626 0.0245901626
      0.00819672085 0.0327868834 0.0163934417 0.0245901626 0.0327868834
      0. 0.0245901626 0.00819672085 0. 0.0245901626</_>
    <_>
      0.0718954206 0.0272331145 0.0108932462 0.0206971671 0.0239651408
      0.034858387 0.00871459674 0.019607842 0.0827886686 0.0119825704
      0.00762527203 0.0141612198 0.00980392098 0.0152505441
      0.00544662308 0.00871459674 0.00762527203 0.0642701536 0.019607842
      0.0152505441 0.00762527203 0.0337690637 0.0217864923 0.0163398683
      0.025054466 0.0217864923 0.034858387 0.0174291935 0.0272331145
      0.00980392098 0.00980392098 0.0119825704 0.00980392098
      0.0283224396 0.0228758156 0.0217864923 0.00871459674 0.0119825704
      0.025054466 0.0261437893 0.0163398683 0.0152505441 0.0141612198
      0.00435729837 0.0152505441 0.0108932462 0.0130718946 0.0119825704
      0.00980392098 0.0163398683</_>
    <_>
      0.00510204071 0.00510204071 0.0102040814 0.0306122452 0.0612244904
      0.00510204071 0.0204081628 0.0102040814 0.0306122452 0.076530613
      0.0408163257 0.0102040814 0.0102040814 0.0510204062 0.0204081628
      0. 0.0204081628 0.0204081628 0.0408163257 0.0204081628
      0.0153061226 0.0153061226 0.0204081628 0.0153061226 0.0102040814
      0. 0.0255102031 0. 0.0204081628 0.0255102031 0.0357142836
      0.0102040814 0.00510204071 0.0153061226 0.0102040814 0.00510204071
      0.0204081628 0.00510204071 0.00510204071 0.0153061226 0.0204081628
      0.0102040814 0.0408163257 0.0459183678 0.00510204071 0.0204081628
      0.0204081628 0.0255102031 0.0357142836 0.0102040814</_>
    <_>
      0.0263157897 0.00657894742 0.00657894742 0.0263157897 0.0263157897
      0.0394736826 0.0131578948 0.0394736826 0.032894738 0.0394736826
      0.00657894742 0.0131578948 0. 0.0526315793 0.00657894742
      0.0131578948 0.0197368413 0.0197368413 0.0197368413 0.0131578948
      0. 0.046052631 0.00657894742 0.0131578948 0.00657894742
      0.0131578948 0.032894738 0.0263157897 0. 0.032894738 0.
      0.0394736826 0.032894738 0.0394736826 0.0131578948 0.0789473653 0.
      0.032894738 0.0131578948 0.0131578948 0.00657894742 0.0131578948
      0.0131578948 0. 0.0394736826 0. 0.0263157897 0.0263157897 0.
      0.0131578948</_>
    <_>
      0.00732600736 0.00366300368 0.025641026 0.0146520147 0.025641026
      0.0146520147 0.0183150191 0.0146520147 0.0732600763 0.051282052
      0.0183150191 0.00366300368 0.0439560451 0.0439560451 0.0146520147
      0.0146520147 0.0293040294 0.00366300368 0.0659340695 0.00732600736
      0.0219780225 0.0219780225 0.00732600736 0.00732600736 0.025641026
      0.00732600736 0.0183150191 0.00732600736 0. 0.0293040294
      0.00366300368 0.0219780225 0.00732600736 0.0183150191 0.0183150191
      0.0183150191 0.0219780225 0.00732600736 0.00366300368 0.0183150191
      0.0183150191 0.00732600736 0.0109890113 0.0402930416 0.0329670347
      0.00732600736 0.0183150191 0.0146520147 0.0439560451 0.025641026</_>
    <_>
      0.0194552522 0.00778210117 0.00907911826 0.00907911826 0.023346303
      0.00778210117 0.0155642023 0.0272373538 0.0453955904 0.0246433206
      0.00648508407 0.0155642023 0.0376134887 0.0207522698 0.0116731515
      0.016861219 0.0207522698 0.0259403363 0.0181582365 0.0246433206
      0.0129701681 0.0194552522 0.0311284047 0.016861219 0.0155642023
      0.0220492873 0.0207522698 0.0298313871 0.0181582365 0.0220492873
      0.0181582365 0.0259403363 0.0181582365 0.0246433206 0.0181582365
      0.0194552522 0.0181582365 0.0259403363 0.0155642023 0.0285343714
      0.023346303 0.0155642023 0.0298313871 0.0181582365 0.016861219
      0.0129701681 0.0220492873 0.0129701681 0.0259403363 0.0129701681</_>
    <_>
      0.0204081628 0.0153061226 0.0255102031 0.0255102031 0.0357142836
      0.0663265288 0.0102040814 0.0204081628 0.0459183678 0.0204081628
      0.00510204071 0.0204081628 0.0204081628 0.0408163257 0.0153061226
      0.00510204071 0.0153061226 0.0255102031 0.0204081628 0.0204081628
      0.0102040814 0.0255102031 0.0102040814 0.0255102031 0.0153061226
      0. 0.0204081628 0.0204081628 0.0306122452 0.0204081628
      0.0153061226 0.0357142836 0.0153061226 0.0357142836 0.0255102031
      0.0255102031 0.0153061226 0.0102040814 0.0204081628 0.00510204071
      0.0102040814 0.00510204071 0.0204081628 0. 0.0204081628 0.
      0.00510204071 0.0255102031 0.0408163257 0.0153061226</_>
    <_>
      0.0180555563 0.020833334 0.0152777778 0.0069444445 0.027777778
      0.075000003 0.0152777778 0.0263888892 0.0375000015 0.0166666675
      0.0152777778 0.0069444445 0.0152777778 0.0236111116 0.00555555569
      0.0222222228 0.0222222228 0.0111111114 0.0736111104 0.0166666675
      0.0152777778 0.0194444451 0.0194444451 0.0152777778 0.027777778
      0.0125000002 0.0125000002 0.00972222257 0.0236111116 0.0347222239
      0.013888889 0.0166666675 0.0111111114 0.0152777778 0.013888889
      0.0152777778 0.0152777778 0.0069444445 0.0180555563 0.0222222228
      0.013888889 0.0222222228 0.0194444451 0.027777778 0.00555555569
      0.0180555563 0.00972222257 0.0111111114 0.0402777791 0.020833334</_>
    <_>
      0.0238095261 0.0158730168 0. 0.0158730168 0.0714285746
      0.00793650839 0.039682541 0.00793650839 0.0634920672 0.0476190522
      0. 0.0317460336 0. 0.0555555597 0.0238095261 0.0317460336
      0.00793650839 0. 0.00793650839 0. 0. 0.0317460336 0.0238095261
      0.0238095261 0.039682541 0.0238095261 0.0158730168 0.0238095261
      0.0238095261 0.0158730168 0.0317460336 0.00793650839 0.00793650839
      0.0238095261 0.0158730168 0.0317460336 0.0158730168 0.0158730168
      0.00793650839 0.0238095261 0.00793650839 0.0158730168 0.
      0.0158730168 0.00793650839 0.00793650839 0.0238095261 0.039682541
      0.00793650839 0.0158730168</_>
    <_>
      0.0236966833 0.0165876783 0.02843602 0.0118483417 0.0545023717
      0.0473933667 0.0165876783 0.01421801 0.0687203854 0.0260663517
      0.01421801 0.01421801 0.00473933667 0.00947867334 0.00236966833
      0.0118483417 0.00947867334 0.021327015 0.0260663517 0.0331753567
      0.0165876783 0.00947867334 0.0331753567 0.0236966833 0.007109005
      0.01421801 0.0165876783 0.0236966833 0.00947867334 0.021327015
      0.0189573467 0.02843602 0.0118483417 0.0189573467 0.021327015
      0.021327015 0.01421801 0.00947867334 0.00947867334 0.01421801
      0.0189573467 0.0165876783 0.0473933667 0.0189573467 0.00947867334
      0.00947867334 0.021327015 0.007109005 0.04265403 0.00947867334</_>
    <_>
      0.0320000015 0.00800000038 0. 0.0160000008 0.0320000015
      0.0320000015 0.0160000008 0.0320000015 0.0400000028 0.0320000015
      0. 0.0240000002 0. 0.0160000008 0.0240000002 0. 0.00800000038
      0.00800000038 0.00800000038 0.00800000038 0. 0.0480000004 0.
      0.0320000015 0.0320000015 0.00800000038 0.0320000015 0.0320000015
      0.00800000038 0.0160000008 0.00800000038 0.0160000008 0.0320000015
      0.0560000017 0.00800000038 0.0320000015 0. 0.0160000008
      0.0320000015 0. 0.0160000008 0.0160000008 0. 0.00800000038
      0.0400000028 0.0160000008 0.0160000008 0.0560000017 0.064000003
      0.0240000002</_>
    <_>
      0.0253164563 0.00632911408 0. 0.03164557 0.0189873427 0.0759493709
      0. 0.0253164563 0.0569620281 0.0189873427 0.00632911408
      0.00632911408 0. 0.0253164563 0.0126582282 0.0126582282
      0.0253164563 0.0886075944 0.0443037972 0.0189873427 0.
      0.0379746854 0. 0.00632911408 0.0189873427 0.00632911408
      0.0253164563 0.0126582282 0.0253164563 0.0506329127 0.00632911408
      0.0253164563 0.0189873427 0.0189873427 0.0126582282 0.0126582282
      0.0126582282 0.0253164563 0.0253164563 0.00632911408 0.0189873427
      0.0253164563 0.0443037972 0.00632911408 0.0189873427 0.0126582282
      0.0126582282 0.00632911408 0. 0.00632911408</_>
    <_>
      0.0115606934 0.0134874759 0.0231213868 0.0134874759 0.0173410401
      0.0115606934 0.0269749518 0.0308285169 0.0500963405 0.0308285169
      0.00963391177 0.00770712923 0.0346820801 0.0134874759 0.0134874759
      0.0346820801 0.0211946052 0.00963391177 0.00770712923 0.0211946052
      0.0231213868 0.0134874759 0.0192678235 0.0211946052 0.0134874759
      0.0154142585 0.00963391177 0.0134874759 0.0231213868 0.00963391177
      0.0173410401 0.0154142585 0.0327553004 0.0173410401 0.0192678235
      0.0269749518 0.0192678235 0.0154142585 0.0173410401 0.0308285169
      0.0289017353 0.0250481702 0.0134874759 0.0423892103 0.0134874759
      0.0346820801 0.0250481702 0.0211946052 0.00963391177 0.00963391177</_>
    <_>
      0.0638297871 0.0180032738 0.00981996767 0.0196399353 0.0130932899
      0.0261865798 0.0229132567 0.00818330608 0.0376432091 0.0196399353
      0.00490998384 0.0196399353 0.0360065475 0.0147299515 0.0229132567
      0.0114566283 0.0278232414 0.058919806 0.0180032738 0.00654664496
      0.0229132567 0.029459903 0.0147299515 0.0130932899 0.0180032738
      0.0278232414 0.0180032738 0.029459903 0.0180032738 0.0180032738
      0.00981996767 0.0196399353 0.00654664496 0.0212765969 0.0212765969
      0.00490998384 0.0130932899 0.0147299515 0.0327332243 0.0278232414
      0.0114566283 0.0114566283 0.0245499182 0.0163666122 0.0261865798
      0.00818330608 0.0229132567 0.00981996767 0.00981996767
      0.0180032738</_>
    <_>
      0.0414507762 0.0207253881 0.00777202053 0.010362694 0.0284974091
      0.0466321222 0.0155440411 0.0129533671 0.0829015523 0.018134715
      0.0310880821 0.0207253881 0.0233160611 0.0414507762 0.0233160611
      0.0155440411 0.010362694 0.0129533671 0.00518134702 0.0388601013
      0.0259067342 0.0155440411 0.0362694301 0.018134715 0.010362694
      0.0336787552 0.0129533671 0.0155440411 0.0155440411 0.00259067351
      0.0155440411 0.018134715 0.0207253881 0.018134715 0.0310880821
      0.0155440411 0.00777202053 0.0207253881 0.0155440411 0.00777202053
      0.0129533671 0.0207253881 0.0129533671 0.018134715 0.0155440411
      0.010362694 0.0233160611 0.0129533671 0.00259067351 0.00518134702</_>
    <_>
      0. 0.012987013 0.0259740259 0. 0.0714285746 0. 0.019480519
      0.012987013 0.0649350658 0.012987013 0.0324675329 0.0324675329
      0.00649350649 0.0324675329 0.019480519 0.012987013 0.00649350649
      0.00649350649 0. 0.019480519 0.0259740259 0.019480519 0.0259740259
      0.00649350649 0.0259740259 0.019480519 0. 0.019480519 0.012987013
      0.00649350649 0.038961038 0.00649350649 0.019480519 0.0324675329
      0. 0. 0. 0.038961038 0.019480519 0.012987013 0. 0.0324675329
      0.0259740259 0.103896104 0. 0.0454545468 0.019480519 0.019480519
      0.019480519 0.012987013</_>
    <_>
      0.0142450146 0.0170940161 0.00854700804 0.025641026 0.0427350439
      0.0284900293 0.0113960113 0.0227920227 0.0370370373 0.051282052
      0.0313390307 0. 0.0113960113 0.0170940161 0.0284900293
      0.00569800567 0.0398860388 0.0227920227 0.0313390307 0.0227920227
      0.0199430194 0.0170940161 0.0199430194 0.0170940161 0.0113960113
      0.0227920227 0.0142450146 0.0227920227 0. 0.0455840454
      0.0170940161 0.0341880322 0.00854700804 0.0170940161 0.0113960113
      0.0170940161 0.0170940161 0.00854700804 0.0142450146 0.0142450146
      0.0113960113 0.0113960113 0.025641026 0.0227920227 0.0227920227
      0.0170940161 0.0142450146 0.0142450146 0.0199430194 0.0199430194</_>
    <_>
      0.0424242392 0.0181818176 0.0181818176 0.00606060587 0.0303030293
      0.0121212117 0.0181818176 0.0121212117 0.0242424235 0.0545454547
      0.0121212117 0.0121212117 0.0242424235 0.0606060587 0.00606060587
      0. 0.0303030293 0.0181818176 0.00606060587 0.0303030293
      0.0303030293 0.0121212117 0.00606060587 0.0242424235 0.
      0.0424242392 0.0121212117 0.0121212117 0.0303030293 0.0121212117
      0.0242424235 0.0242424235 0.0303030293 0.00606060587 0.0242424235
      0.0181818176 0.00606060587 0.0181818176 0. 0.0303030293
      0.0363636352 0.0242424235 0.0242424235 0.00606060587 0. 0.
      0.0303030293 0.0424242392 0.0181818176 0.0181818176</_>
    <_>
      0.0081081083 0.0081081083 0.0216216221 0.0135135138 0.0351351351
      0.0216216221 0.0162162166 0.024324324 0.0432432443 0.0459459461
      0.0189189203 0.00540540554 0.0621621646 0.0270270277 0.0189189203
      0.024324324 0.0297297314 0.00270270277 0.0162162166 0.0162162166
      0.0324324332 0.0108108111 0.0162162166 0.0189189203 0.0324324332
      0. 0.0216216221 0.00540540554 0.0135135138 0.0162162166
      0.0297297314 0.0324324332 0.0189189203 0.0162162166 0.0108108111
      0.0162162166 0.0189189203 0.0108108111 0.0189189203 0.0162162166
      0.0108108111 0.024324324 0.0162162166 0.024324324 0.024324324
      0.0189189203 0.0135135138 0.0162162166 0.0108108111 0.024324324</_>
    <_>
      0.0236686394 0.0177514795 0.0177514795 0.00591715984 0.035502959
      0.0295857992 0.00591715984 0.0295857992 0.0473372787 0.0473372787
      0. 0.00591715984 0.0236686394 0.0177514795 0.0473372787
      0.0236686394 0.0236686394 0.0118343197 0.0650887564 0. 0.
      0.035502959 0.00591715984 0.0118343197 0.0177514795 0.0236686394
      0.0177514795 0.0236686394 0.00591715984 0.00591715984
      0.00591715984 0.0177514795 0.041420117 0.0295857992 0.00591715984
      0.035502959 0. 0.00591715984 0.0177514795 0.0473372787
      0.0118343197 0.0295857992 0.0118343197 0.0295857992 0.0177514795
      0.0177514795 0. 0.00591715984 0.0295857992 0.0118343197</_>
    <_>
      0.0144927539 0.0108695654 0. 0.0181159414 0.00724637695
      0.0217391308 0.0434782617 0.0144927539 0.0615942031 0.00362318847
      0.00362318847 0.0217391308 0.0217391308 0.0253623202 0.0108695654
      0.0253623202 0.00724637695 0.0615942031 0.0144927539 0.0398550741
      0.0144927539 0.0253623202 0.0253623202 0.0217391308 0.0144927539
      0.0326086953 0.0398550741 0.0398550741 0.0181159414 0.00362318847
      0.0217391308 0.0362318829 0.0108695654 0.0181159414 0.0217391308
      0.00362318847 0.00724637695 0.0144927539 0.0144927539 0.0144927539
      0.0144927539 0.0144927539 0.0108695654 0. 0.0289855078
      0.0181159414 0.0217391308 0.0253623202 0.0253623202 0.0144927539</_>
    <_>
      0.0243902449 0.0243902449 0.0271002725 0.016260162 0.016260162
      0.0135501362 0.016260162 0.0108401086 0.0352303535 0.016260162
      0.0243902449 0.0189701896 0.0406504087 0.0216802172 0.008130081
      0.0271002725 0. 0.0189701896 0.016260162 0.0189701896 0.0243902449
      0.0108401086 0.0271002725 0.0298102982 0.0216802172 0.0216802172
      0.0108401086 0.0271002725 0.008130081 0.0189701896 0.032520324
      0.0243902449 0.0216802172 0.0108401086 0.0189701896 0.0108401086
      0.016260162 0.0135501362 0.008130081 0.008130081 0.008130081
      0.0243902449 0.0433604345 0.0298102982 0.016260162 0.0216802172
      0.0298102982 0.0243902449 0.0271002725 0.0135501362</_>
    <_>
      0.00864553265 0.0201729108 0.0345821306 0.0230547544 0.0172910653
      0.0115273772 0.025936598 0.0144092217 0.0288184434 0.0489913523
      0.0201729108 0.0028818443 0.0115273772 0.0230547544 0.0115273772
      0.00576368859 0.0230547544 0.0230547544 0.0230547544 0.0201729108
      0.0115273772 0.0144092217 0.0172910653 0.0144092217 0.0403458215
      0.0172910653 0.0230547544 0.0115273772 0.0432276651 0.025936598
      0.0288184434 0.0230547544 0.0172910653 0.00864553265 0.00864553265
      0.00864553265 0.0115273772 0.00864553265 0.0144092217 0.0172910653
      0.0230547544 0.0230547544 0.0201729108 0.0403458215 0.025936598
      0.00576368859 0.0201729108 0.025936598 0.0489913523 0.0028818443</_>
    <_>
      0.0169491526 0.0207156297 0.00564971752 0.0320150666 0.0207156297
      0.0301318262 0.00941619556 0.0131826736 0.0489642173 0.0527306944
      0.00564971752 0.011299435 0.00376647827 0.0169491526 0.00564971752
      0.011299435 0.0470809788 0.0527306944 0.0640301332 0.0188323911
      0.00564971752 0.0225988701 0.0169491526 0.0150659131 0.00941619556
      0.0188323911 0.0169491526 0.0263653472 0.0169491526 0.0225988701
      0.011299435 0.0922787189 0.0131826736 0.0169491526 0.0150659131
      0.0169491526 0.0207156297 0.0131826736 0.011299435 0.0169491526
      0.00941619556 0.0150659131 0.0207156297 0. 0.0244821087
      0.011299435 0.0131826736 0.00564971752 0.00941619556 0.00376647827</_>
    <_>
      0.0319715813 0.0159857906 0.0159857906 0.0177619904 0.0124333929
      0.0426287763 0.0106571941 0.0230905861 0.0497335717 0.0355239809
      0.0159857906 0.0230905861 0.0337477811 0.0213143881 0.0159857906
      0.0124333929 0.0248667859 0.0248667859 0.0248667859 0.0266429838
      0.0177619904 0.0159857906 0.0248667859 0.0124333929 0.0106571941
      0.0177619904 0.0284191836 0.0284191836 0.00888099521 0.00710479589
      0.0213143881 0.0195381884 0.0230905861 0.0284191836 0.0106571941
      0.0195381884 0.00177619897 0.0284191836 0.0195381884 0.0124333929
      0.0213143881 0.0213143881 0.0248667859 0.00177619897 0.00888099521
      0.0124333929 0.0266429838 0.0195381884 0.0177619904 0.00888099521</_>
    <_>
      0.0559006222 0.00621118024 0.00621118024 0.024844721 0.024844721
      0.0434782617 0.0124223605 0.024844721 0.0186335407 0.00621118024
      0.0124223605 0.024844721 0.024844721 0.0372670814 0.0931677073 0.
      0.0124223605 0.00621118024 0.0186335407 0. 0.0186335407
      0.0434782617 0.0124223605 0. 0.0372670814 0.0124223605 0.024844721
      0.00621118024 0.024844721 0.0124223605 0.0124223605 0. 0.024844721
      0.0434782617 0.0124223605 0.0186335407 0.00621118024 0.00621118024
      0.0186335407 0.0186335407 0.0124223605 0.0124223605 0.00621118024
      0.0124223605 0.024844721 0.024844721 0.0372670814 0.0310559012
      0.0186335407 0.0124223605</_>
    <_>
      0.0109489048 0.01459854 0.01459854 0.01459854 0.0328467153
      0.00364963501 0.0255474448 0.01459854 0.0474452563 0.01459854
      0.0364963487 0.0182481743 0.00729927002 0.0364963487 0.0255474448
      0.01459854 0.0182481743 0.0291970801 0.0109489048 0.0255474448
      0.0291970801 0.00729927002 0.0364963487 0.0291970801 0.0218978096
      0.0255474448 0.0218978096 0.0182481743 0.0182481743 0.0218978096
      0.0291970801 0.00729927002 0.0255474448 0.00729927002
      0.00364963501 0.0255474448 0.01459854 0.0109489048 0.0109489048
      0.0255474448 0.0218978096 0.0255474448 0.0109489048 0.0218978096
      0.0182481743 0.0218978096 0.0218978096 0.0218978096 0.00729927002
      0.0218978096</_>
    <_>
      0.0290697664 0.0174418613 0.0232558139 0.00581395347 0.0348837227
      0.0348837227 0.0116279069 0.0290697664 0.0116279069 0.0639534891
      0.0290697664 0.00581395347 0.0116279069 0.00581395347 0.0174418613
      0.0465116277 0.0290697664 0.0116279069 0.00581395347 0.0116279069
      0.00581395347 0.00581395347 0.0348837227 0.0174418613 0.0348837227
      0.00581395347 0.00581395347 0.00581395347 0.0232558139
      0.0116279069 0.0465116277 0. 0.0232558139 0.0232558139
      0.00581395347 0.0290697664 0.0232558139 0.0116279069 0.00581395347
      0.0290697664 0.0290697664 0.0290697664 0.0232558139 0.0116279069
      0.00581395347 0.0523255803 0.0232558139 0.0290697664 0.
      0.0116279069</_>
    <_>
      0.00880281627 0.0264084507 0.0193661973 0.00880281627 0.0193661973
      0.00880281627 0.0123239439 0.0105633801 0.0352112651 0.0880281702
      0.00880281627 0.0158450697 0.0510563366 0.0176056325 0.00880281627
      0.0193661973 0.0299295764 0.0299295764 0.0158450697 0.0246478878
      0.0140845068 0.0123239439 0.0211267602 0.0123239439 0.0264084507
      0.0158450697 0.0228873231 0.0176056325 0.00880281627 0.0140845068
      0.0281690136 0.0193661973 0.0158450697 0.0211267602 0.0105633801
      0.0228873231 0.0264084507 0.0193661973 0.0105633801 0.0264084507
      0.0264084507 0.0176056325 0.0105633801 0.0211267602 0.0140845068
      0.0105633801 0.0158450697 0.0158450697 0.0176056325 0.0246478878</_>
    <_>
      0.0291858688 0.0276497696 0.00460829493 0.00768049154 0.0153609831
      0.0384024568 0.0215053763 0.0168970823 0.0291858688 0.0261136703
      0.00921658985 0.00921658985 0.0322580636 0.0138248848 0.0276497696
      0.0230414756 0.0337941647 0.0245775729 0.0291858688 0.0184331797
      0.00614439324 0.0138248848 0.0291858688 0.0199692771 0.0107526882
      0.0138248848 0.0168970823 0.00921658985 0.0291858688 0.0168970823
      0.0107526882 0.0276497696 0.0230414756 0.0215053763 0.0276497696
      0.0138248848 0.0153609831 0.0122887865 0.0184331797 0.035330262
      0.0230414756 0.0153609831 0.0414746553 0.0153609831 0.0230414756
      0.0122887865 0.0215053763 0.00614439324 0.00460829493 0.0276497696</_>
    <_>
      0.022648083 0.0261324048 0.00696864119 0.0209059231 0.0174216032
      0.0243902449 0.0139372824 0.0121951224 0.0365853645 0.0104529615
      0.0156794433 0.0156794433 0.0104529615 0.0174216032 0.0261324048
      0.0209059231 0.0261324048 0.0243902449 0.0261324048 0.0261324048
      0.0174216032 0.0296167247 0.0243902449 0.0104529615 0.0209059231
      0.0261324048 0.0209059231 0.0243902449 0.0104529615 0.0174216032
      0.0121951224 0.0296167247 0.0139372824 0.0331010446 0.022648083
      0.0243902449 0.0296167247 0.0191637632 0.00522648077 0.0296167247
      0.0139372824 0.0156794433 0.0400696881 0.0087108016 0.0261324048
      0.0139372824 0.0174216032 0.0121951224 0.0174216032 0.0121951224</_>
    <_>
      0.0478468873 0.0143540669 0.0239234436 0.00956937764 0.0382775106
      0.0143540669 0.00956937764 0.0382775106 0.0861243978 0.0287081338
      0.0239234436 0.0191387553 0.0287081338 0.0143540669 0.0191387553
      0.00956937764 0.00956937764 0.0287081338 0.00956937764
      0.00956937764 0.0191387553 0.0143540669 0.0191387553 0.00956937764
      0.0239234436 0.0239234436 0. 0.00478468882 0.0239234436
      0.0191387553 0.0382775106 0.00478468882 0.0191387553 0.0239234436
      0.00956937764 0.0143540669 0.00956937764 0.0143540669
      0.00478468882 0.0334928222 0.0382775106 0.0287081338 0.
      0.00956937764 0. 0.0191387553 0.00478468882 0.0287081338
      0.0191387553 0.0382775106</_>
    <_>
      0.0249376558 0.0124688279 0.0174563602 0.0274314228 0.00997506268
      0.0224438906 0.014962594 0.0124688279 0.0648379102 0.00748129701
      0.00997506268 0.00997506268 0.0399002507 0.0448877811 0.0324189551
      0.0124688279 0.0274314228 0.0324189551 0.0249376558 0.0199501254
      0.0199501254 0.0174563602 0.029925188 0.00748129701 0.0224438906
      0.0124688279 0.014962594 0.0224438906 0.00997506268 0.0124688279
      0.0174563602 0.0224438906 0.0124688279 0.0199501254 0.00997506268
      0.0224438906 0.0199501254 0.0224438906 0.014962594 0.0374064855
      0.0124688279 0.014962594 0.0174563602 0.0199501254 0.014962594
      0.0249376558 0.0249376558 0.00997506268 0.00498753134 0.0174563602</_>
    <_>
      0.0375000015 0.00312500005 0.00312500005 0.0343750007 0.0125000002
      0.0375000015 0.0375000015 0.0250000004 0.0625 0.0125000002 0.
      0.0218749996 0.00625000009 0.0250000004 0.015625 0.0125000002
      0.0125000002 0.0687500015 0.0125000002 0.015625 0. 0.0593749993
      0.00937500037 0.0125000002 0.00937500037 0.0218749996 0.0281250011
      0.0375000015 0.0218749996 0.00937500037 0.0125000002 0.0281250011
      0.0281250011 0.0437499993 0.00937500037 0.0343750007 0.0187500007
      0.00937500037 0. 0.015625 0.015625 0.015625 0.0375000015
      0.00625000009 0.00937500037 0.0187500007 0.0125000002 0.0125000002
      0.00312500005 0.00312500005</_>
    <_>
      0.046647232 0.0174927115 0.002915452 0.0291545205 0.00874635577
      0.0758017525 0.011661808 0.005830904 0.0437317789 0.0437317789
      0.011661808 0.011661808 0.011661808 0.00874635577 0.011661808
      0.00874635577 0.023323616 0.0408163294 0.0320699736 0.0174927115
      0.002915452 0.0349854231 0.0204081647 0.011661808 0. 0.0174927115
      0.0204081647 0.0291545205 0.0204081647 0.0320699736 0.011661808
      0.0262390673 0.0204081647 0.0320699736 0.0262390673 0.0174927115
      0.0174927115 0.0204081647 0.0262390673 0.023323616 0.011661808
      0.005830904 0.0204081647 0.005830904 0.0174927115 0.0145772602
      0.0204081647 0.011661808 0.00874635577 0.00874635577</_>
    <_>
      0. 0.0143884895 0.0143884895 0.0143884895 0.0287769791 0.
      0.0431654677 0.0143884895 0.0287769791 0.0431654677 0.0143884895
      0.00719424477 0.0215827338 0.0431654677 0. 0.0143884895
      0.00719424477 0.0215827338 0.0143884895 0.0215827338 0.0215827338
      0.0287769791 0.00719424477 0.0287769791 0.0287769791 0.0143884895
      0.0287769791 0.0215827338 0.0143884895 0.0143884895 0.0431654677
      0.0359712243 0.00719424477 0. 0.00719424477 0.0359712243
      0.0143884895 0.0143884895 0. 0.00719424477 0.0215827338
      0.0503597148 0.0287769791 0.0143884895 0.00719424477 0.0359712243
      0.0143884895 0.0287769791 0.0215827338 0.0359712243</_>
    <_>
      0.00763358781 0. 0.0305343512 0.0152671756 0.0534351133
      0.0152671756 0.00763358781 0.0305343512 0.00763358781 0.0381679386
      0.0152671756 0. 0.0229007639 0.0381679386 0.0381679386
      0.0229007639 0.0152671756 0.0229007639 0.00763358781 0.0305343512
      0.0229007639 0.0381679386 0.0229007639 0.0152671756 0.0381679386
      0.0152671756 0.00763358781 0.0152671756 0. 0.0381679386
      0.0229007639 0.0534351133 0.0152671756 0.00763358781 0.
      0.0229007639 0.0152671756 0.00763358781 0.00763358781 0.0229007639
      0.00763358781 0.0534351133 0.0229007639 0.00763358781
      0.00763358781 0.00763358781 0. 0.0152671756 0.0229007639
      0.0458015278</_>
    <_>
      0.028070176 0.0105263162 0.003508772 0.0105263162 0.0596491247
      0.0666666701 0.00701754401 0.0385964923 0.056140352 0.028070176
      0.00701754401 0.0245614033 0.028070176 0.0175438598 0.014035088
      0.0210526325 0.003508772 0.0105263162 0.0210526325 0.042105265
      0.003508772 0.0315789469 0.0456140377 0.0245614033 0.0175438598
      0.0105263162 0.0210526325 0.0315789469 0.0105263162 0.0105263162
      0.0105263162 0.00701754401 0. 0.0245614033 0.0210526325
      0.003508772 0.028070176 0. 0.003508772 0.0210526325 0.0245614033
      0.014035088 0.0245614033 0.0105263162 0.0210526325 0.0175438598
      0.0105263162 0.00701754401 0.0245614033 0.0210526325</_>
    <_>
      0.0133333337 0.00666666683 0.0133333337 0.0333333351 0.0533333346
      0.0399999991 0.0133333337 0.00666666683 0.0733333379 0.0333333351
      0. 0. 0.00666666683 0.0266666673 0.0266666673 0. 0.0133333337
      0.0333333351 0. 0.0133333337 0.0133333337 0.0333333351
      0.0133333337 0.0266666673 0.0333333351 0.00666666683 0.0799999982
      0.0199999996 0.0199999996 0.0133333337 0.00666666683 0.0199999996
      0.0266666673 0.0266666673 0.00666666683 0.0333333351 0.0266666673
      0.0199999996 0.00666666683 0.0199999996 0.00666666683 0.0199999996
      0.0199999996 0.0133333337 0. 0. 0.0133333337 0.0133333337
      0.0199999996 0.0333333351</_>
    <_>
      0.0114068445 0.0266159698 0.0152091254 0.00760456268 0.0190114062
      0.00760456268 0.0190114062 0.022813689 0.0266159698 0.022813689
      0.0304182507 0.0342205316 0.0266159698 0.022813689 0.0418250933
      0.0114068445 0.0114068445 0.00380228134 0.0114068445 0.022813689
      0.0190114062 0.00760456268 0.022813689 0.0190114062 0.00380228134
      0.0114068445 0.00380228134 0.0304182507 0.022813689 0.0114068445
      0.0342205316 0.0266159698 0.0342205316 0.0114068445 0.0114068445
      0.0266159698 0.0190114062 0.0342205316 0.0152091254 0.00760456268
      0.0190114062 0.0152091254 0.022813689 0.0342205316 0.0190114062
      0.0418250933 0.0266159698 0.0114068445 0.0304182507 0.0114068445</_>
    <_>
      0.0285714287 0.00857142825 0.00285714283 0.00857142825
      0.0371428579 0.0114285713 0.0199999996 0.0171428565 0.077142857
      0.0371428579 0.0142857144 0.0171428565 0.034285713 0.034285713
      0.0257142857 0.0199999996 0.0314285718 0.0199999996 0.042857144
      0.00285714283 0.0199999996 0.0228571426 0.0228571426 0.0142857144
      0.0142857144 0.00857142825 0.0257142857 0.00857142825
      0.00285714283 0.0171428565 0.0371428579 0.0314285718 0.00857142825
      0.0142857144 0.0199999996 0.0114285713 0.0199999996 0.0114285713
      0.0199999996 0.0142857144 0.0114285713 0.0142857144 0.0399999991
      0.0171428565 0.00571428565 0.0199999996 0.0171428565 0.00857142825
      0.0199999996 0.00857142825</_>
    <_>
      0.0106382975 0.0248226933 0.0141843967 0.00531914877 0.0301418435
      0.00354609918 0.00354609918 0.0124113467 0.0141843967 0.0478723384
      0.0177304968 0. 0.0124113467 0.00354609918 0.0124113467
      0.0159574468 0.00354609918 0.101063825 0.00354609918 0.0709219873
      0.00886524841 0.00709219836 0.079787232 0.0620567352 0.00531914877
      0.00886524841 0.00177304959 0.00177304959 0.0780141801
      0.00177304959 0.00886524841 0.00354609918 0. 0.00531914877
      0.0106382975 0.00531914877 0.0212765951 0.00531914877
      0.00886524841 0.138297871 0.058510635 0.00709219836 0.00177304959
      0.0177304968 0.00354609918 0.0159574468 0.00354609918
      0.00354609918 0.00354609918 0.0141843967</_>
    <_>
      0.0204081628 0.0076530613 0.0255102031 0.00510204071 0.0637755096
      0.0153061226 0.0076530613 0.0178571418 0.0586734675 0.0433673449
      0.0331632644 0.00510204071 0.0408163257 0.0102040814 0.0178571418
      0.0076530613 0.0127551015 0.0102040814 0.0076530613 0.107142858
      0.0408163257 0.00255102036 0.0637755096 0.0153061226 0.0204081628
      0. 0.0127551015 0. 0.0102040814 0.0102040814 0.0178571418
      0.0102040814 0.0127551015 0.00510204071 0.0127551015 0.0076530613
      0.0306122452 0.00510204071 0.0204081628 0.0357142836 0.00510204071
      0.0153061226 0.0229591839 0.0255102031 0.0127551015 0.0076530613
      0.00255102036 0.0102040814 0.0331632644 0.0127551015</_>
    <_>
      0.0220264308 0.0132158585 0.0176211447 0.0220264308 0.0484581478
      0.026431717 0.0176211447 0.0132158585 0.0881057233 0.0132158585
      0.0308370031 0.0132158585 0.00881057233 0.0220264308 0.00881057233
      0.00881057233 0.00881057233 0.0352422893 0.026431717 0.0352422893
      0.0176211447 0.00881057233 0.0396475755 0.0220264308 0.0132158585
      0.00440528616 0.0176211447 0.0176211447 0.0176211447 0.00881057233
      0.026431717 0.0132158585 0.00881057233 0.0176211447 0.0176211447
      0.0176211447 0.0220264308 0.0132158585 0.0176211447 0.0440528616
      0.0176211447 0.00881057233 0.0176211447 0.026431717 0.0176211447
      0.0220264308 0.0220264308 0.00881057233 0.00440528616
      0.00881057233</_>
    <_>
      0.0397351012 0.0165562909 0.0165562909 0.0264900662 0.029801324
      0.0397351012 0.0198675506 0.0231788084 0.0728476793 0.0132450331
      0.00662251655 0.0231788084 0.00331125828 0.0231788084 0.0264900662
      0.00662251655 0.0264900662 0.029801324 0.00993377529 0.029801324
      0.0165562909 0.0331125818 0.00331125828 0.0132450331 0.00662251655
      0.0132450331 0.0264900662 0.0132450331 0.00662251655 0.0132450331
      0.0165562909 0.0364238396 0.0364238396 0.0331125818 0.00662251655
      0.043046359 0. 0.0198675506 0.0165562909 0.00662251655
      0.00993377529 0.00662251655 0.0198675506 0.0132450331 0.0231788084
      0.0165562909 0.029801324 0.00662251655 0.0165562909 0.0132450331</_>
    <_>
      0.0221238937 0.0221238937 0. 0.0132743362 0.017699115 0.0398230106
      0.0221238937 0.0221238937 0.0309734512 0.017699115 0.0265486725
      0.017699115 0.0132743362 0.00884955749 0.0132743362 0.00884955749
      0.0221238937 0.0707964599 0.00442477874 0.017699115 0.0132743362
      0.03539823 0.0132743362 0.00884955749 0.0221238937 0.0486725643
      0.017699115 0.03539823 0.0132743362 0.00884955749 0.0309734512
      0.0132743362 0.017699115 0.0442477874 0.00884955749 0.0265486725
      0.00884955749 0.017699115 0.0265486725 0.0132743362 0.0132743362
      0.0309734512 0.00442477874 0.00442477874 0.017699115 0.0265486725
      0.03539823 0.0132743362 0.00442477874 0.0132743362</_>
    <_>
      0.0329218097 0.0164609049 0.0246913582 0.0164609049 0.0493827164
      0.0205761306 0.0164609049 0.028806584 0.0411522612 0.0946502015
      0.0246913582 0.0123456791 0.0329218097 0.0164609049 0.0246913582
      0.0205761306 0.0205761306 0.028806584 0.00411522621 0.0164609049
      0.0246913582 0.0205761306 0.0164609049 0.0329218097 0.0164609049
      0.0329218097 0.00823045243 0.00411522621 0.0164609049 0.0123456791
      0.028806584 0. 0.0205761306 0.0246913582 0.00411522621
      0.00411522621 0.0123456791 0.0123456791 0.0123456791 0.00823045243
      0.0205761306 0.0164609049 0.0164609049 0.028806584 0.00823045243
      0.00823045243 0.00411522621 0. 0.0164609049 0.0246913582</_>
    <_>
      0. 0.00606060587 0.0121212117 0.0121212117 0.0303030293 0.
      0.0181818176 0.0242424235 0.00606060587 0.0727272704 0.0121212117
      0.0181818176 0.0242424235 0.0303030293 0.0363636352 0.0181818176
      0.0121212117 0.0121212117 0.00606060587 0.0242424235 0.0181818176
      0.0181818176 0.0242424235 0.0303030293 0.0303030293 0.00606060587
      0.0181818176 0.0121212117 0. 0.00606060587 0.0303030293
      0.0121212117 0.0303030293 0.0121212117 0.0121212117 0.0303030293
      0.0121212117 0.0242424235 0.0121212117 0.0424242392 0.0363636352
      0.0181818176 0.0181818176 0.0606060587 0.0121212117 0.0242424235
      0.0363636352 0.0121212117 0.00606060587 0.0181818176</_>
    <_>
      0.0419354849 0.0161290318 0.0032258064 0.0193548389 0.00967741944
      0.0548387095 0.0161290318 0.0032258064 0.0129032256 0.0032258064
      0. 0.0258064512 0.0161290318 0.00967741944 0.0064516128
      0.00967741944 0.112903222 0.0322580636 0.0419354849 0.00967741944
      0.0032258064 0.0322580636 0.0064516128 0.0161290318 0.0064516128
      0.0354838707 0.0483870953 0.0225806441 0.0225806441 0.0064516128
      0.00967741944 0.0774193555 0.0193548389 0.0225806441 0.0161290318
      0.00967741944 0.0064516128 0.0225806441 0.0129032256 0.0129032256
      0.0032258064 0.0129032256 0.0161290318 0. 0.0354838707 0.
      0.0193548389 0.0258064512 0.0290322583 0.0032258064</_>
    <_>
      0.0108695654 0.0181159414 0.0181159414 0.00724637695 0.0579710156
      0.0289855078 0.0144927539 0.0144927539 0.0797101483 0.0362318829
      0.0217391308 0. 0.0108695654 0.0289855078 0.0289855078
      0.0108695654 0.0181159414 0.0326086953 0.0144927539 0.0181159414
      0.0326086953 0.0181159414 0.0362318829 0.0108695654 0.0108695654
      0.00724637695 0.0144927539 0.0289855078 0.0217391308 0.0217391308
      0.0108695654 0.0144927539 0.0108695654 0.0181159414 0.0181159414
      0.00724637695 0.0181159414 0.00724637695 0.0181159414 0.0289855078
      0.0144927539 0.00724637695 0.0181159414 0.0144927539 0.00724637695
      0.0253623202 0.0217391308 0.0289855078 0.0217391308 0.0144927539</_>
    <_>
      0.0220994484 0.0110497242 0.0386740342 0.0110497242 0.0220994484
      0.0165745858 0.0220994484 0.0220994484 0.0994475186 0.0883977935
      0.0331491716 0.00552486209 0. 0.0276243109 0.0165745858
      0.0276243109 0.0110497242 0.0110497242 0.00552486209 0.0220994484
      0.0331491716 0. 0.0276243109 0.0165745858 0.0165745858
      0.00552486209 0.0165745858 0.0110497242 0.00552486209 0.0165745858
      0.0331491716 0.00552486209 0.0110497242 0.0165745858 0.00552486209
      0.00552486209 0.00552486209 0.00552486209 0.0110497242
      0.0276243109 0.0220994484 0.0110497242 0. 0.0441988967
      0.0331491716 0.0331491716 0.00552486209 0.0165745858 0.0220994484
      0.0220994484</_>
    <_>
      0.00837988779 0.0139664803 0.0195530728 0.00279329601 0.0865921751
      0.0139664803 0.0195530728 0.0446927361 0.0726256967 0.0530726239
      0.0195530728 0.011173184 0.0139664803 0.0335195512 0.00837988779
      0.0223463681 0. 0.00558659201 0.00558659201 0.0167597756
      0.0195530728 0.0195530728 0.0279329605 0.0223463681 0.0195530728
      0.00558659201 0.00279329601 0.011173184 0.0139664803 0.00279329601
      0.0139664803 0.0251396634 0.0251396634 0.0195530728 0.0139664803
      0.0223463681 0.011173184 0.00558659201 0.00837988779 0.0363128483
      0.0195530728 0.0223463681 0.0223463681 0.0391061455 0.00279329601
      0.0195530728 0.0139664803 0.00837988779 0.0418994389 0.011173184</_>
    <_>
      0.00900900923 0.0210210215 0.0120120123 0.0180180185 0.0330330357
      0.0300300308 0.0120120123 0.0180180185 0.0660660714 0.0300300308
      0.0120120123 0.0240240246 0.0180180185 0.0180180185 0.0120120123
      0.0180180185 0.0150150154 0.0360360369 0.0240240246 0.0150150154
      0.0150150154 0.0270270277 0.0390390381 0.0240240246 0.0210210215
      0.00900900923 0.0180180185 0.0210210215 0.0330330357 0.0120120123
      0.0150150154 0.00900900923 0.00900900923 0.0210210215 0.0150150154
      0.00900900923 0.00900900923 0.0240240246 0.0150150154 0.0330330357
      0.00900900923 0.0120120123 0.0360360369 0.00900900923
      0.00300300308 0.0180180185 0.0120120123 0.0330330357 0.0330330357
      0.0150150154</_>
    <_>
      0.0409356728 0.0116959065 0.0175438598 0. 0.0526315793
      0.0292397663 0.023391813 0.0116959065 0.0292397663 0.0116959065
      0.0116959065 0. 0.0116959065 0.0526315793 0.0292397663
      0.0175438598 0.00584795326 0.0116959065 0.0292397663 0.00584795326
      0.0116959065 0.0175438598 0. 0.0292397663 0.0175438598
      0.0116959065 0.0116959065 0.0116959065 0.0175438598 0.023391813
      0.0409356728 0.0350877196 0.00584795326 0.0116959065 0.023391813
      0.0116959065 0.0467836261 0.00584795326 0.0350877196 0.
      0.0175438598 0.0175438598 0.0409356728 0.023391813 0.00584795326
      0.023391813 0.0292397663 0.0292397663 0.00584795326 0.0350877196</_>
    <_>
      0.008130081 0.008130081 0.0121951215 0.008130081 0.024390243
      0.008130081 0.016260162 0.0284552835 0.0772357732 0.0121951215
      0.0284552835 0. 0.08130081 0.0040650405 0.048780486 0.024390243
      0.0121951215 0.024390243 0.016260162 0.016260162 0.032520324
      0.024390243 0.024390243 0.016260162 0.0365853645 0.016260162
      0.024390243 0.016260162 0.0203252025 0.008130081 0.008130081
      0.0203252025 0. 0.024390243 0.0121951215 0.0121951215 0.0203252025
      0.0121951215 0.008130081 0.0284552835 0.016260162 0.0203252025
      0.040650405 0.016260162 0.008130081 0.008130081 0.0121951215
      0.008130081 0.0121951215 0.032520324</_>
    <_>
      0.0627451017 0.0196078438 0.00196078443 0.0137254912 0.0274509825
      0.0490196124 0.00784313772 0.0156862754 0.0411764719 0.011764707
      0.00784313772 0.0235294141 0.00784313772 0.0137254912 0.021568628
      0.0176470596 0.0196078438 0.0392156877 0.0411764719 0.0313725509
      0.0196078438 0.0274509825 0.0294117667 0.0156862754 0.00196078443
      0.0274509825 0.0392156877 0.0313725509 0.0196078438 0.00784313772
      0.00392156886 0.0313725509 0.00588235352 0.021568628 0.0196078438
      0.0196078438 0.0137254912 0.0156862754 0.0235294141 0.0254901983
      0.0176470596 0.00980392192 0.0254901983 0. 0.0137254912
      0.00588235352 0.021568628 0.00784313772 0.0196078438 0.00392156886</_>
    <_>
      0.0225988701 0.00564971752 0. 0.0282485876 0.0169491526
      0.0903954804 0.00564971752 0. 0.0282485876 0.0225988701
      0.0225988701 0.0169491526 0.00564971752 0.011299435 0.0282485876
      0.00564971752 0.0338983051 0.0338983051 0.0338983051 0.00564971752
      0.0282485876 0.0225988701 0.0282485876 0.0282485876 0.
      0.00564971752 0.0169491526 0.0225988701 0.0395480245 0.00564971752
      0.011299435 0.0169491526 0.0169491526 0.0338983051 0.0169491526
      0.0225988701 0.0169491526 0.0225988701 0.0451977402 0.0338983051
      0.0169491526 0.0169491526 0. 0.00564971752 0.0395480245
      0.011299435 0.0282485876 0.0225988701 0. 0.00564971752</_>
    <_>
      0.0241691843 0.0407854989 0.00151057402 0.0317220539 0.0090634441
      0.0166163146 0.0166163146 0.0256797578 0.0287009068 0.00604229607
      0.00604229607 0.00151057402 0.0740181282 0.00151057402
      0.0135951657 0.0256797578 0.0135951657 0.0271903314 0.043806646
      0.0166163146 0.00151057402 0.0135951657 0.00302114803 0.0151057402
      0.0241691843 0.0211480372 0.0407854989 0.0226586107 0.141993955
      0.0528700911 0.00302114803 0.0135951657 0.00604229607 0.0211480372
      0.0120845921 0.00755287008 0.0211480372 0.0105740186 0.0166163146
      0.043806646 0.0120845921 0.0151057402 0.0135951657 0.
      0.00151057402 0.00302114803 0.0151057402 0.00453172205 0.
      0.0181268882</_>
    <_>
      0.00423728814 0.00423728814 0.0296610165 0.0211864412 0.0762711838
      0.00423728814 0. 0.0254237279 0.161016956 0.0466101691
      0.0169491526 0.0169491526 0.00847457629 0.0211864412 0.0338983051
      0.0254237279 0.012711864 0.0211864412 0.00423728814 0.0211864412
      0.012711864 0.0169491526 0.0211864412 0.012711864 0.0254237279
      0.00423728814 0.0169491526 0.012711864 0.00847457629 0.00847457629
      0.00847457629 0.012711864 0.00423728814 0.0169491526 0.0211864412
      0.0296610165 0. 0.00423728814 0.012711864 0.0169491526
      0.0211864412 0.0169491526 0. 0.0169491526 0.0169491526
      0.0254237279 0.00847457629 0.00847457629 0.0296610165 0.0338983051</_>
    <_>
      0.00913241971 0.0114155244 0.0205479451 0.0228310488 0.0456620976
      0.00456620986 0.0159817338 0.0114155244 0.107305929 0.0319634676
      0.0228310488 0.00456620986 0.0114155244 0.0159817338 0.01369863
      0.00684931502 0.0205479451 0.0365296789 0.0114155244 0.0342465751
      0.0251141544 0.0182648394 0.0342465751 0.0114155244 0.0388127826
